{"learner":{"attributes":{"best_iteration":"99","best_ntree_limit":"100","scikit_learn":"{\"n_estimators\": 100, \"objective\": \"reg:squarederror\", \"max_depth\": 5, \"max_leaves\": null, \"max_bin\": null, \"grow_policy\": null, \"learning_rate\": 0.1, \"verbosity\": null, \"booster\": null, \"tree_method\": null, \"gamma\": 0, \"min_child_weight\": null, \"max_delta_step\": null, \"subsample\": 1.0, \"sampling_method\": null, \"colsample_bytree\": 1.0, \"colsample_bylevel\": null, \"colsample_bynode\": null, \"reg_alpha\": 0, \"reg_lambda\": 6.046898009288968, \"scale_pos_weight\": null, \"base_score\": null, \"missing\": NaN, \"num_parallel_tree\": null, \"random_state\": null, \"n_jobs\": null, \"monotone_constraints\": null, \"interaction_constraints\": null, \"importance_type\": null, \"gpu_id\": null, \"validate_parameters\": null, \"predictor\": null, \"enable_categorical\": false, \"feature_types\": null, \"max_cat_to_onehot\": null, \"max_cat_threshold\": null, \"eval_metric\": null, \"early_stopping_rounds\": null, \"callbacks\": null, \"kwargs\": {\"eta\": 1}, \"_estimator_type\": \"regressor\"}"},"feature_names":[],"feature_types":[],"gradient_booster":{"model":{"gbtree_model_param":{"num_parallel_tree":"1","num_trees":"600","size_leaf_vector":"0"},"tree_info":[0,1,2,3,4,5,0,1,2,3,4,5,0,1,2,3,4,5,0,1,2,3,4,5,0,1,2,3,4,5,0,1,2,3,4,5,0,1,2,3,4,5,0,1,2,3,4,5,0,1,2,3,4,5,0,1,2,3,4,5,0,1,2,3,4,5,0,1,2,3,4,5,0,1,2,3,4,5,0,1,2,3,4,5,0,1,2,3,4,5,0,1,2,3,4,5,0,1,2,3,4,5,0,1,2,3,4,5,0,1,2,3,4,5,0,1,2,3,4,5,0,1,2,3,4,5,0,1,2,3,4,5,0,1,2,3,4,5,0,1,2,3,4,5,0,1,2,3,4,5,0,1,2,3,4,5,0,1,2,3,4,5,0,1,2,3,4,5,0,1,2,3,4,5,0,1,2,3,4,5,0,1,2,3,4,5,0,1,2,3,4,5,0,1,2,3,4,5,0,1,2,3,4,5,0,1,2,3,4,5,0,1,2,3,4,5,0,1,2,3,4,5,0,1,2,3,4,5,0,1,2,3,4,5,0,1,2,3,4,5,0,1,2,3,4,5,0,1,2,3,4,5,0,1,2,3,4,5,0,1,2,3,4,5,0,1,2,3,4,5,0,1,2,3,4,5,0,1,2,3,4,5,0,1,2,3,4,5,0,1,2,3,4,5,0,1,2,3,4,5,0,1,2,3,4,5,0,1,2,3,4,5,0,1,2,3,4,5,0,1,2,3,4,5,0,1,2,3,4,5,0,1,2,3,4,5,0,1,2,3,4,5,0,1,2,3,4,5,0,1,2,3,4,5,0,1,2,3,4,5,0,1,2,3,4,5,0,1,2,3,4,5,0,1,2,3,4,5,0,1,2,3,4,5,0,1,2,3,4,5,0,1,2,3,4,5,0,1,2,3,4,5,0,1,2,3,4,5,0,1,2,3,4,5,0,1,2,3,4,5,0,1,2,3,4,5,0,1,2,3,4,5,0,1,2,3,4,5,0,1,2,3,4,5,0,1,2,3,4,5,0,1,2,3,4,5,0,1,2,3,4,5,0,1,2,3,4,5,0,1,2,3,4,5,0,1,2,3,4,5,0,1,2,3,4,5,0,1,2,3,4,5,0,1,2,3,4,5,0,1,2,3,4,5,0,1,2,3,4,5,0,1,2,3,4,5,0,1,2,3,4,5,0,1,2,3,4,5,0,1,2,3,4,5,0,1,2,3,4,5,0,1,2,3,4,5,0,1,2,3,4,5,0,1,2,3,4,5,0,1,2,3,4,5,0,1,2,3,4,5,0,1,2,3,4,5,0,1,2,3,4,5,0,1,2,3,4,5,0,1,2,3,4,5,0,1,2,3,4,5],"trees":[{"base_weights":[3.8316666E1,2.7204079E1,4.205177E1],"categories":[],"categories_nodes":[],"categories_segments":[],"categories_sizes":[],"default_left":[1,0,0],"id":0,"left_children":[1,-1,-1],"loss_changes":[3.9591562E3,0E0,0E0],"parents":[2147483647,0,0],"right_children":[2,-1,-1],"split_conditions":[1.127008E1,2.720408E0,4.205177E0],"split_indices":[2,0,0],"split_type":[0,0,0],"sum_hessian":[2.56E2,7.7E1,1.79E2],"tree_param":{"num_deleted":"0","num_feature":"3","num_nodes":"3","size_leaf_vector":"0"}},{"base_weights":[1.5520493E0,2.1973254E-1,2.352866E0,-1.4999714E-1,4.428114E-1,7.451059E-1,2.6388257E0,-2.0363037E-1,7.1815126E-2,1.740078E-1,8.255341E-1,2.1381044E-1,8.631834E-1,1.54658E0,2.8848672E0,-9.882563E-3,8.3557285E-2,-2.4584841E-2,2.6263818E-1,-1.1536123E-3,2.3082137E-1,9.863375E-2,9.036518E-1,1.243476E-1,1.6046307E0,3.6141644E-3,8.8815644E-2,-5.0672084E-2,4.1003235E-2,4.2367037E-2,2.9277223E-1,3.245589E-1,1.7031648E0],"categories":[],"categories_nodes":[],"categories_segments":[],"categories_sizes":[],"default_left":[1,1,1,1,1,1,1,0,1,1,0,1,1,1,0,0,1,1,1,0,0,0,0,0,1,0,0,0,0,0,0,0,0],"id":1,"left_children":[1,3,5,7,9,11,13,-1,15,17,-1,19,21,23,-1,-1,25,27,29,-1,-1,-1,-1,-1,31,-1,-1,-1,-1,-1,-1,-1,-1],"loss_changes":[2.764624E2,9.065786E0,6.3072144E1,6.124326E-1,6.028967E0,9.5716476E-1,9.581726E0,0E0,1.750926E-2,8.6713266E-1,0E0,5.2975953E-2,2.3598862E-1,1.9346619E0,0E0,0E0,3.1231344E-3,4.686424E-2,1.443491E-1,0E0,0E0,0E0,0E0,0E0,1.2040405E0,0E0,0E0,0E0,0E0,0E0,0E0,0E0,0E0],"parents":[2147483647,0,0,1,1,2,2,3,3,4,4,5,5,6,6,8,8,9,9,11,11,12,12,13,13,16,16,17,17,18,18,24,24],"right_children":[2,4,6,8,10,12,14,-1,16,18,-1,20,22,24,-1,-1,26,28,30,-1,-1,-1,-1,-1,32,-1,-1,-1,-1,-1,-1,-1,-1],"split_conditions":[1.3218732E1,1.1783976E1,2.5037132E1,3.3047028E1,3.1399223E1,1.4080589E1,1.1191698E1,-2.0363038E-2,1.0806364E1,1.2576536E1,8.255341E-2,1.3456465E1,4.2033863E0,2.6175476E1,2.8848672E-1,-9.882563E-4,3.9950194E0,2.9400002E1,2.7236254E1,-1.1536123E-4,2.3082137E-2,9.863376E-3,9.036518E-2,1.243476E-2,1.3662372E1,3.6141646E-4,8.881564E-3,-5.0672083E-3,4.1003237E-3,4.2367037E-3,2.9277224E-2,3.245589E-2,1.7031649E-1],"split_indices":[1,1,0,0,0,1,2,0,1,1,0,1,2,0,0,0,2,0,0,0,0,0,0,0,1,0,0,0,0,0,0,0,0],"split_type":[0,0,0,0,0,0,0,0,0,0,0,0,0,0,0,0,0,0,0,0,0,0,0,0,0,0,0,0,0,0,0,0,0],"sum_hessian":[2.56E2,9.9E1,1.57E2,3.8E1,6.1E1,2.7E1,1.3E2,3.1E1,7E0,4.1E1,2E1,8E0,1.9E1,3.2E1,9.8E1,1E0,6E0,1.4E1,2.7E1,1E0,7E0,2E0,1.7E1,2E0,3E1,1E0,5E0,1.1E1,3E0,5E0,2.2E1,4E0,2.6E1],"tree_param":{"num_deleted":"0","num_feature":"3","num_nodes":"33","size_leaf_vector":"0"}},{"base_weights":[1.2726842E1],"categories":[],"categories_nodes":[],"categories_segments":[],"categories_sizes":[],"default_left":[0],"id":2,"left_children":[-1],"loss_changes":[0E0],"parents":[2147483647],"right_children":[-1],"split_conditions":[1.2726842E0],"split_indices":[0],"split_type":[0],"sum_hessian":[2.56E2],"tree_param":{"num_deleted":"0","num_feature":"3","num_nodes":"1","size_leaf_vector":"0"}},{"base_weights":[-2.4696153E-2,-3.8267502E-1,6.0778683E-1,-4.3334156E-1,-2.7221063E-1,-2.3485887E-1,9.877732E-1,-3.379569E-1,-1.0905415E-1,-2.866611E-1,1.05618924E-1,2.8769137E-2,1.2556701E0,-3.42305E-1,-1.9546315E-2,-2.0730242E-1,-2.415658E-3,-2.918322E-1,-1.7896319E-2,-6.167174E-2,1.7275204E-1,-1.9105749E-1,4.4805372E-1,-4.3991867E-2,6.544374E-2,-2.0903751E-1,1.6382515E-2,4.8103133E-1,2.5924336E-2],"categories":[],"categories_nodes":[],"categories_segments":[],"categories_sizes":[],"default_left":[1,1,1,0,1,1,1,1,1,1,1,1,0,0,0,0,1,0,0,0,0,1,1,0,0,0,0,0,0],"id":3,"left_children":[1,3,5,-1,7,9,11,13,15,17,19,21,-1,-1,-1,-1,23,-1,-1,-1,-1,25,27,-1,-1,-1,-1,-1,-1],"loss_changes":[6.0737915E1,2.4402809E-1,3.247663E1,0E0,5.285263E-1,8.0122066E-1,1.7263771E1,2.4676323E-2,3.0129763E-1,1.295805E-2,1.6602655E-1,2.4575295E0,0E0,0E0,0E0,0E0,7.3968016E-2,0E0,0E0,0E0,0E0,8.8018775E-2,5.0532937E-2,0E0,0E0,0E0,0E0,0E0,0E0],"parents":[2147483647,0,0,1,1,2,2,4,4,5,5,6,6,7,7,8,8,9,9,10,10,11,11,16,16,21,21,22,22],"right_children":[2,4,6,-1,8,10,12,14,16,18,20,22,-1,-1,-1,-1,24,-1,-1,-1,-1,26,28,-1,-1,-1,-1,-1,-1],"split_conditions":[1.4196613E1,1.33598E1,1.2679089E1,-4.3334156E-2,3.021704E1,1.1469016E1,2.6415344E1,1.41829605E1,1.5565954E1,1.0641779E1,2.6013653E1,1.4903507E1,1.25567E-1,-3.42305E-2,-1.9546316E-3,-2.0730242E-2,1.3832737E1,-2.9183222E-2,-1.7896319E-3,-6.1671743E-3,1.7275205E-2,1.48165E1,2.5150534E1,-4.399187E-3,6.544374E-3,-2.0903751E-2,1.6382516E-3,4.8103135E-2,2.5924337E-3],"split_indices":[1,1,2,0,0,2,0,1,2,2,0,1,0,0,0,0,1,0,0,0,0,1,0,0,0,0,0,0,0],"split_type":[0,0,0,0,0,0,0,0,0,0,0,0,0,0,0,0,0,0,0,0,0,0,0,0,0,0,0,0,0],"sum_hessian":[2.56E2,1.65E2,9.1E1,1.01E2,6.4E1,2.9E1,6.2E1,4.1E1,2.3E1,2.6E1,3E0,1.5E1,4.7E1,4E1,1E0,9E0,1.4E1,2.5E1,1E0,1E0,2E0,1.2E1,3E0,1E1,4E0,1.1E1,1E0,2E0,1E0],"tree_param":{"num_deleted":"0","num_feature":"3","num_nodes":"29","size_leaf_vector":"0"}},{"base_weights":[-7.4084044E-1,-3.7669063E-1,-1.3364999E0,-3.5033846E-1,-1.6675733E0,-5.765254E-1,-1.9213674E0],"categories":[],"categories_nodes":[],"categories_segments":[],"categories_sizes":[],"default_left":[1,0,1,0,1,0,0],"id":4,"left_children":[1,-1,3,-1,5,-1,-1],"loss_changes":[5.3796112E1,0E0,2.8152344E1,0E0,1.2974731E1,0E0,0E0],"parents":[2147483647,0,0,2,2,4,4],"right_children":[2,-1,4,-1,6,-1,-1],"split_conditions":[1.4196613E1,-3.7669063E-2,1.1469016E1,-3.5033848E-2,2.6415344E1,-5.765254E-2,-1.9213675E-1],"split_indices":[1,0,2,0,0,0,0],"split_type":[0,0,0,0,0,0,0],"sum_hessian":[2.56E2,1.65E2,9.1E1,2.6E1,6.5E1,1.6E1,4.9E1],"tree_param":{"num_deleted":"0","num_feature":"3","num_nodes":"7","size_leaf_vector":"0"}},{"base_weights":[3.1029436E-1,1.7173569E-1,5.0122124E-1,2.3760239E-2,2.6291272E-1,2.0490396E-1,5.6756824E-1,-5.421397E-2,9.785624E-2,1.0341379E-1,3.4031117E-1,1.6285399E-1,5.8606386E-1,-6.341993E-2,-7.885954E-3,2.4964489E-2,1.127348E-1,1.585124E-2,1.3628821E-1,7.139336E-2,4.0033877E-1,-1.1996494E-2,3.6830094E-3,-1.9128816E-2,3.0512746E-2,-7.781211E-4,9.74178E-2],"categories":[],"categories_nodes":[],"categories_segments":[],"categories_sizes":[],"default_left":[1,1,1,1,1,0,1,1,1,1,1,0,0,0,1,0,0,1,0,1,0,0,0,0,0,0,0],"id":5,"left_children":[1,3,5,7,9,-1,11,13,15,17,19,-1,-1,-1,21,-1,-1,23,-1,25,-1,-1,-1,-1,-1,-1,-1],"loss_changes":[6.4118366E0,2.135065E0,1.4012833E0,4.2522603E-1,1.009923E0,0E0,5.1992416E-2,1.2776054E-2,2.316013E-2,1.0509291E-1,8.6104774E-1,0E0,0E0,0E0,8.8761235E-4,0E0,0E0,1.2784948E-2,0E0,3.623268E-2,0E0,0E0,0E0,0E0,0E0,0E0,0E0],"parents":[2147483647,0,0,1,1,2,2,3,3,4,4,6,6,7,7,8,8,9,9,10,10,14,14,17,17,19,19],"right_children":[2,4,6,8,10,-1,12,14,16,18,20,-1,-1,-1,22,-1,-1,24,-1,26,-1,-1,-1,-1,-1,-1,-1],"split_conditions":[3.021704E1,1.3482174E1,1.0697056E1,2.7014637E1,1.3132294E1,2.0490397E-2,1.1284197E1,2.5441364E1,2.847995E1,2.8188812E1,2.5037132E1,1.6285399E-2,5.8606386E-2,-6.3419933E-3,2.6355602E1,2.496449E-3,1.127348E-2,2.6687366E1,1.3628821E-2,2.3652817E1,4.0033877E-2,-1.1996494E-3,3.6830094E-4,-1.9128816E-3,3.0512747E-3,-7.781211E-5,9.74178E-3],"split_indices":[0,2,2,0,1,0,1,0,0,0,0,0,0,0,0,0,0,0,0,0,0,0,0,0,0,0,0],"split_type":[0,0,0,0,0,0,0,0,0,0,0,0,0,0,0,0,0,0,0,0,0,0,0,0,0,0,0],"sum_hessian":[2.56E2,1.55E2,1.01E2,6.2E1,9.3E1,2.3E1,7.8E1,3.1E1,3.1E1,3.5E1,5.8E1,6E0,7.2E1,2.4E1,7E0,8E0,2.3E1,1.2E1,2.3E1,1.3E1,4.5E1,5E0,2E0,3E0,9E0,5E0,8E0],"tree_param":{"num_deleted":"0","num_feature":"3","num_nodes":"27","size_leaf_vector":"0"}},{"base_weights":[3.464481E1,2.5193518E1,3.8248165E1],"categories":[],"categories_nodes":[],"categories_segments":[],"categories_sizes":[],"default_left":[1,0,0],"id":6,"left_children":[1,-1,-1],"loss_changes":[3.0975E3,0E0,0E0],"parents":[2147483647,0,0],"right_children":[2,-1,-1],"split_conditions":[1.2355316E1,2.5193517E0,3.8248165E0],"split_indices":[2,0,0],"split_type":[0,0,0],"sum_hessian":[2.56E2,8.4E1,1.72E2],"tree_param":{"num_deleted":"0","num_feature":"3","num_nodes":"3","size_leaf_vector":"0"}},{"base_weights":[1.4136869E0,2.036879E-1,2.1408286E0,-1.366597E-1,4.0891105E-1,6.0236484E-1,2.3801773E0,-1.8659104E-1,6.845946E-2,1.6079028E-1,7.621458E-1,1.1992278E-1,6.92584E-1,1.6816789E0,2.728739E0,-1.9457938E-1,-3.1811494E-2,9.065062E-3,9.855261E-2,-2.2418011E-2,2.4250673E-1,1.3274889E-1,8.092442E-1,-1.1372413E-3,1.3150403E-1,4.626169E-1,2.0108936E0,5.689559E-1,2.8230221E0,-9.742324E-3,1.6800607E-2,-4.740233E-2,3.9643545E-2,4.044944E-2,2.698072E-1,6.2029797E-1,2.1997406E0],"categories":[],"categories_nodes":[],"categories_segments":[],"categories_sizes":[],"default_left":[1,1,1,1,1,1,1,1,1,1,1,1,0,1,1,0,0,1,0,1,1,0,0,0,0,0,1,0,0,0,0,0,0,0,0,0,0],"id":7,"left_children":[1,3,5,7,9,11,13,15,17,19,21,23,-1,25,27,-1,-1,29,-1,31,33,-1,-1,-1,-1,-1,35,-1,-1,-1,-1,-1,-1,-1,-1,-1,-1],"loss_changes":[2.2792267E2,7.675144E0,5.136902E1,5.283655E-1,5.135297E0,8.0557156E-1,6.1054077E0,8.37636E-3,1.7917354E-2,7.3721945E-1,1.2252712E-1,1.77944E-2,0E0,1.92762E1,7.1985474E0,0E0,0E0,2.5968999E-3,0E0,4.244734E-2,1.1630213E-1,0E0,0E0,0E0,0E0,0E0,4.104019E0,0E0,0E0,0E0,0E0,0E0,0E0,0E0,0E0,0E0,0E0],"parents":[2147483647,0,0,1,1,2,2,3,3,4,4,5,5,6,6,7,7,8,8,9,9,10,10,11,11,13,13,14,14,17,17,19,19,20,20,26,26],"right_children":[2,4,6,8,10,12,14,16,18,20,22,24,-1,26,28,-1,-1,30,-1,32,34,-1,-1,-1,-1,-1,36,-1,-1,-1,-1,-1,-1,-1,-1,-1,-1],"split_conditions":[1.3218732E1,1.1783976E1,2.4589863E1,3.3047028E1,3.1399223E1,1.4080589E1,1.4152657E1,3.1564232E1,3.4599335E1,1.2576536E1,1.1773907E1,1.3456465E1,6.92584E-2,2.7878235E1,3.9190016E0,-1.9457938E-2,-3.1811495E-3,1.0806364E1,9.855261E-3,2.9400002E1,2.7236254E1,1.32748885E-2,8.092442E-2,-1.1372413E-4,1.3150403E-2,4.626169E-2,9.847721E0,5.689559E-2,2.8230223E-1,-9.7423245E-4,1.6800606E-3,-4.740233E-3,3.9643547E-3,4.044944E-3,2.6980719E-2,6.2029798E-2,2.1997407E-1],"split_indices":[1,1,0,0,0,1,1,0,0,1,2,1,0,0,2,0,0,1,0,0,0,0,0,0,0,0,2,0,0,0,0,0,0,0,0,0,0],"split_type":[0,0,0,0,0,0,0,0,0,0,0,0,0,0,0,0,0,0,0,0,0,0,0,0,0,0,0,0,0,0,0,0,0,0,0,0,0],"sum_hessian":[2.56E2,9.9E1,1.57E2,3.8E1,6.1E1,2.4E1,1.33E2,3.1E1,7E0,4.1E1,2E1,6E0,1.8E1,5.6E1,7.7E1,2.8E1,3E0,5E0,2E0,1.4E1,2.7E1,3E0,1.7E1,1E0,5E0,1.5E1,4.1E1,5E0,7.2E1,1E0,4E0,1.1E1,3E0,5E0,2.2E1,8E0,3.3E1],"tree_param":{"num_deleted":"0","num_feature":"3","num_nodes":"37","size_leaf_vector":"0"}},{"base_weights":[1.1483526E1],"categories":[],"categories_nodes":[],"categories_segments":[],"categories_sizes":[],"default_left":[0],"id":8,"left_children":[-1],"loss_changes":[0E0],"parents":[2147483647],"right_children":[-1],"split_conditions":[1.1483526E0],"split_indices":[0],"split_type":[0],"sum_hessian":[2.56E2],"tree_param":{"num_deleted":"0","num_feature":"3","num_nodes":"1","size_leaf_vector":"0"}},{"base_weights":[-2.1325938E-2,-3.4787574E-1,5.555527E-1,-3.93838E-1,-2.5166398E-1,-4.638402E-2,1.0199172E0,-3.114157E-1,-1.0547018E-1,-2.6383922E-1,2.8242615E-1,9.6509695E-2,1.2372742E0,-3.1514877E-1,-1.9268937E-2,-1.9490303E-1,-1.12304315E-2,-2.6833293E-1,-1.764236E-2,-1.2050288E-1,5.6377655E-1,-1.64414E-1,4.3713298E-1,-5.090046E-2,6.283822E-2,-1.3846198E-1,1.6150039E-2,1.7636675E-2,5.974622E-1,-1.7290804E-1,-7.6052127E-3,4.6907565E-1,2.5556453E-2],"categories":[],"categories_nodes":[],"categories_segments":[],"categories_sizes":[],"default_left":[1,1,1,0,1,1,1,1,1,1,1,1,0,0,0,0,1,0,0,1,1,1,1,0,0,0,0,0,0,0,0,0,0],"id":9,"left_children":[1,3,5,-1,7,9,11,13,15,17,19,21,-1,-1,-1,-1,23,-1,-1,25,27,29,31,-1,-1,-1,-1,-1,-1,-1,-1,-1,-1],"loss_changes":[5.0532936E1,1.5705109E-1,2.7412424E1,0E0,4.3074226E-1,3.8860095E0,1.0326355E1,1.5680313E-2,2.400034E-1,6.8285465E-3,2.9101365E0,1.9496671E0,0E0,0E0,0E0,0E0,8.118318E-2,0E0,0E0,4.799527E-2,1.9470406E-1,1.0757923E-2,4.644847E-2,0E0,0E0,0E0,0E0,0E0,0E0,0E0,0E0,0E0,0E0],"parents":[2147483647,0,0,1,1,2,2,4,4,5,5,6,6,7,7,8,8,9,9,10,10,11,11,16,16,19,19,20,20,21,21,22,22],"right_children":[2,4,6,-1,8,10,12,14,16,18,20,22,-1,-1,-1,-1,24,-1,-1,26,28,30,32,-1,-1,-1,-1,-1,-1,-1,-1,-1,-1],"split_conditions":[1.4196613E1,1.3218732E1,1.6800083E1,-3.93838E-2,3.021704E1,1.1469016E1,2.633823E1,1.41829605E1,1.5565954E1,1.0641779E1,2.8863155E1,1.4798016E1,1.2372742E-1,-3.151488E-2,-1.9268937E-3,-1.9490303E-2,1.3832737E1,-2.6833294E-2,-1.764236E-3,1.48165E1,1.4358276E1,2.573005E1,2.5150534E1,-5.090046E-3,6.283822E-3,-1.3846198E-2,1.6150039E-3,1.7636676E-3,5.9746217E-2,-1.7290805E-2,-7.605213E-4,4.6907566E-2,2.5556453E-3],"split_indices":[1,1,2,0,0,2,0,1,2,2,0,1,0,0,0,0,1,0,0,1,1,0,0,0,0,0,0,0,0,0,0,0,0],"split_type":[0,0,0,0,0,0,0,0,0,0,0,0,0,0,0,0,0,0,0,0,0,0,0,0,0,0,0,0,0,0,0,0,0],"sum_hessian":[2.56E2,1.65E2,9.1E1,9.9E1,6.6E1,4.2E1,4.9E1,4.2E1,2.4E1,2.6E1,1.6E1,1.1E1,3.8E1,4.1E1,1E0,9E0,1.5E1,2.5E1,1E0,8E0,8E0,8E0,3E0,1.1E1,4E0,7E0,1E0,1E0,7E0,7E0,1E0,2E0,1E0],"tree_param":{"num_deleted":"0","num_feature":"3","num_nodes":"33","size_leaf_vector":"0"}},{"base_weights":[-6.741981E-1,-3.4035325E-1,-1.220597E0,-2.732175E-1,-4.0967363E-1,-3.7497318E-1,-1.5476606E0,-5.4603785E-1,-1.7686445E0,-1.4000662E-1,-6.1979353E-1,-8.413656E-2,-6.598415E-1],"categories":[],"categories_nodes":[],"categories_segments":[],"categories_sizes":[],"default_left":[1,1,1,0,0,0,1,1,0,0,1,0,0],"id":10,"left_children":[1,3,5,-1,-1,-1,7,9,-1,-1,11,-1,-1],"loss_changes":[4.5288536E1,1.1920357E-1,2.3331314E1,0E0,0E0,0E0,9.221909E0,1.05573654E-1,0E0,0E0,8.532524E-3,0E0,0E0],"parents":[2147483647,0,0,1,1,2,2,6,6,7,7,10,10],"right_children":[2,4,6,-1,-1,-1,8,10,-1,-1,12,-1,-1],"split_conditions":[1.4196613E1,1.3218732E1,1.2679089E1,-2.732175E-2,-4.0967364E-2,-3.749732E-2,2.6415344E1,2.3652817E1,-1.7686445E-1,-1.4000662E-2,1.4460233E1,-8.413657E-3,-6.598415E-2],"split_indices":[1,1,2,0,0,0,0,0,0,0,1,0,0],"split_type":[0,0,0,0,0,0,0,0,0,0,0,0,0],"sum_hessian":[2.56E2,1.65E2,9.1E1,9.9E1,6.6E1,2.9E1,6.2E1,1.5E1,4.7E1,5E0,1E1,2E0,8E0],"tree_param":{"num_deleted":"0","num_feature":"3","num_nodes":"13","size_leaf_vector":"0"}},{"base_weights":[2.8310573E-1,1.572303E-1,4.5648706E-1,7.6110545E-3,2.3227607E-1,1.8867919E-1,5.1619965E-1,-5.4794144E-2,6.499866E-2,1.4271763E-1,3.6056107E-1,-6.128201E-2,-1.3262844E-2,1.2641932E-2,7.3473595E-2,4.324727E-2,2.022707E-1,-7.268471E-3,4.2667368E-1,-1.51708815E-2,5.84725E-2,8.032091E-2,2.4292731E-1,-1.2504777E-2,2.826041E-3],"categories":[],"categories_nodes":[],"categories_segments":[],"categories_sizes":[],"default_left":[1,1,1,1,1,0,0,1,1,1,1,0,0,0,0,1,1,1,0,0,0,0,0,0,0],"id":11,"left_children":[1,3,5,7,9,-1,-1,11,13,15,17,-1,-1,-1,-1,19,21,23,-1,-1,-1,-1,-1,-1,-1],"loss_changes":[5.285019E0,1.7975917E0,1.1228981E0,2.3658133E-1,9.186983E-1,0E0,0E0,3.7202537E-3,9.490654E-3,3.7981653E-1,9.9262047E-1,0E0,0E0,0E0,0E0,3.653583E-2,1.00399256E-1,8.504657E-4,0E0,0E0,0E0,0E0,0E0,0E0,0E0],"parents":[2147483647,0,0,1,1,2,2,3,3,4,4,7,7,8,8,9,9,10,10,15,15,16,16,17,17],"right_children":[2,4,6,8,10,-1,-1,12,14,16,18,-1,-1,-1,-1,20,22,24,-1,-1,-1,-1,-1,-1,-1],"split_conditions":[3.021704E1,1.20280075E1,1.0697056E1,2.6355602E1,1.4139533E1,1.886792E-2,5.1619966E-2,2.5187819E1,2.7653511E1,2.7995647E1,2.3652817E1,-6.128201E-3,-1.3262844E-3,1.2641932E-3,7.34736E-3,2.4709467E1,1.2200001E1,1.7817242E1,4.266737E-2,-1.5170882E-3,5.84725E-3,8.032091E-3,2.4292732E-2,-1.2504777E-3,2.826041E-4],"split_indices":[0,2,2,0,1,0,0,0,0,0,0,0,0,0,0,0,1,2,0,0,0,0,0,0,0],"split_type":[0,0,0,0,0,0,0,0,0,0,0,0,0,0,0,0,0,0,0,0,0,0,0,0,0],"sum_hessian":[2.56E2,1.55E2,1.01E2,5.4E1,1.01E2,2.3E1,7.8E1,2.6E1,2.8E1,6.7E1,3.4E1,2E1,6E0,6E0,2.2E1,2.9E1,3.8E1,6E0,2.8E1,6E0,2.3E1,1.4E1,2.4E1,3E0,3E0],"tree_param":{"num_deleted":"0","num_feature":"3","num_nodes":"25","size_leaf_vector":"0"}},{"base_weights":[3.1326727E1,2.3226852E1,3.4814884E1,1.7917675E1,3.62138E1],"categories":[],"categories_nodes":[],"categories_segments":[],"categories_sizes":[],"default_left":[1,0,1,0,0],"id":12,"left_children":[1,-1,3,-1,-1],"loss_changes":[2.5140156E3,0E0,1.1953125E2,0E0,0E0],"parents":[2147483647,0,0,2,2],"right_children":[2,-1,4,-1,-1],"split_conditions":[1.3288502E1,2.3226852E0,1.1517748E1,1.7917675E0,3.6213799E0],"split_indices":[2,0,1,0,0],"split_type":[0,0,0,0,0],"sum_hessian":[2.56E2,9.1E1,1.65E2,1.9E1,1.46E2],"tree_param":{"num_deleted":"0","num_feature":"3","num_nodes":"5","size_leaf_vector":"0"}},{"base_weights":[1.2922124E0,1.8978763E-1,1.954552E0,-1.2465184E-1,3.792439E-1,5.5869013E-1,2.1711864E0,-1.7162716E-1,6.65083E-2,1.4859924E-1,7.0780003E-1,1.1447422E-1,6.407415E-1,1.2881548E0,2.3623893E0,-1.7857727E-1,-3.0756604E-2,8.54491E-3,9.6103154E-2,-2.0410242E-2,2.2393313E-1,3.1533352E-1,9.0733224E-1,-1.121103E-3,1.2555195E-1,7.896859E-2,6.7004406E-1,1.08437516E-1,1.3354189E0,2.3745446E0,1.5231562E-1,-9.604074E-3,1.6131712E-2,-4.4343553E-2,3.8328942E-2,3.8618635E-2,2.486435E-1,2.7101295E-2,3.4104475E-1,1.3591014E0,7.172266E-2,1.3149496E0,2.5572965E0],"categories":[],"categories_nodes":[],"categories_segments":[],"categories_sizes":[],"default_left":[1,1,1,1,1,1,1,1,1,1,1,1,1,1,1,0,0,1,0,1,1,1,0,0,0,0,0,0,1,1,0,0,0,0,0,0,0,0,0,0,0,0,0],"id":13,"left_children":[1,3,5,7,9,11,13,15,17,19,21,23,25,27,29,-1,-1,31,-1,33,35,37,-1,-1,-1,-1,-1,-1,39,41,-1,-1,-1,-1,-1,-1,-1,-1,-1,-1,-1,-1,-1],"loss_changes":[1.8909814E2,6.543768E0,4.1968994E1,4.6455574E-1,4.444792E0,6.5163517E-1,5.075012E0,3.0591488E-3,1.7415207E-2,6.266452E-1,3.0963326E-1,1.6277596E-2,7.5888634E-2,1.2457771E0,6.887207E-1,0E0,0E0,2.457925E-3,0E0,3.845995E-2,9.326422E-2,7.785201E-2,0E0,0E0,0E0,0E0,0E0,0E0,4.8934937E-1,2.0123291E-1,0E0,0E0,0E0,0E0,0E0,0E0,0E0,0E0,0E0,0E0,0E0,0E0,0E0],"parents":[2147483647,0,0,1,1,2,2,3,3,4,4,5,5,6,6,7,7,8,8,9,9,10,10,11,11,12,12,13,13,14,14,17,17,19,19,20,20,21,21,28,28,29,29],"right_children":[2,4,6,8,10,12,14,16,18,20,22,24,26,28,30,-1,-1,32,-1,34,36,38,-1,-1,-1,-1,-1,-1,40,42,-1,-1,-1,-1,-1,-1,-1,-1,-1,-1,-1,-1,-1],"split_conditions":[1.3218732E1,1.1783976E1,2.4589863E1,3.3047028E1,3.1399223E1,1.4080589E1,1.1191698E1,3.1564232E1,3.4599335E1,1.2576536E1,1.2294151E1,1.3456465E1,4.2033863E0,2.6175476E1,1.344E2,-1.7857729E-2,-3.0756604E-3,1.0806364E1,9.610316E-3,2.9400002E1,2.7236254E1,1.594758E1,9.073322E-2,-1.121103E-4,1.2555196E-2,7.896859E-3,6.7004405E-2,1.0843752E-2,1.0971601E1,2.7060902E1,1.5231562E-2,-9.6040743E-4,1.6131712E-3,-4.4343555E-3,3.8328941E-3,3.8618636E-3,2.4864351E-2,2.7101296E-3,3.4104478E-2,1.3591014E-1,7.1722656E-3,1.3149497E-1,2.5572965E-1],"split_indices":[1,1,0,0,0,1,2,0,0,1,1,1,2,0,2,0,0,1,0,0,0,2,0,0,0,0,0,0,2,0,0,0,0,0,0,0,0,0,0,0,0,0,0],"split_type":[0,0,0,0,0,0,0,0,0,0,0,0,0,0,0,0,0,0,0,0,0,0,0,0,0,0,0,0,0,0,0,0,0,0,0,0,0,0,0,0,0,0,0],"sum_hessian":[2.56E2,9.9E1,1.57E2,3.8E1,6.1E1,2.4E1,1.33E2,3.1E1,7E0,4.1E1,2E1,6E0,1.8E1,3.2E1,1.01E2,2.8E1,3E0,5E0,2E0,1.4E1,2.7E1,1.2E1,8E0,1E0,5E0,2E0,1.6E1,2E0,3E1,1E2,1E0,1E0,4E0,1.1E1,3E0,5E0,2.2E1,2E0,1E1,2.9E1,1E0,2.2E1,7.8E1],"tree_param":{"num_deleted":"0","num_feature":"3","num_nodes":"43","size_leaf_vector":"0"}},{"base_weights":[1.0361672E1],"categories":[],"categories_nodes":[],"categories_segments":[],"categories_sizes":[],"default_left":[0],"id":14,"left_children":[-1],"loss_changes":[0E0],"parents":[2147483647],"right_children":[-1],"split_conditions":[1.0361673E0],"split_indices":[0],"split_type":[0],"sum_hessian":[2.56E2],"tree_param":{"num_deleted":"0","num_feature":"3","num_nodes":"1","size_leaf_vector":"0"}},{"base_weights":[-1.723889E-2,-3.1630954E-1,5.1095265E-1,-3.5569006E-1,-2.2882167E-1,-1.9862351E-1,8.3100784E-1,-2.8197667E-1,-9.509174E-2,-2.4285135E-1,9.080395E-2,3.8027186E-2,1.0509031E0,-2.8519332E-1,-1.8995497E-2,-1.832453E-1,-2.4177066E-4,-2.4672586E-1,-1.7392002E-2,-5.8831718E-2,1.5360892E-1,-1.6944587E-1,4.2648062E-1,6.2866884E-1,1.3162421E0,-3.8078427E-2,6.0336426E-2,-2.5073177E-1,-1.793141E-2,-1.8596727E-1,1.5920863E-2,4.5741707E-1,2.5193786E-2,7.6005094E-2,1.0880111E0],"categories":[],"categories_nodes":[],"categories_segments":[],"categories_sizes":[],"default_left":[1,1,1,0,1,1,1,1,1,1,1,1,1,0,0,0,1,1,0,0,0,1,1,1,0,0,0,0,0,0,0,0,0,0,0],"id":15,"left_children":[1,3,5,-1,7,9,11,13,15,17,19,21,23,-1,-1,-1,25,27,-1,-1,-1,29,31,33,-1,-1,-1,-1,-1,-1,-1,-1,-1,-1,-1],"loss_changes":[4.237195E1,9.7156525E-2,2.303778E1,0E0,3.3578324E-1,5.8197176E-1,1.1623867E1,7.0397854E-3,2.4260375E-1,2.0469427E-3,1.3966778E-1,2.1332269E0,9.3943024E-1,0E0,0E0,0E0,5.9841868E-2,1.2686253E-3,0E0,0E0,0E0,7.317239E-2,4.2626977E-2,7.635442E0,0E0,0E0,0E0,0E0,0E0,0E0,0E0,0E0,0E0,0E0,0E0],"parents":[2147483647,0,0,1,1,2,2,4,4,5,5,6,6,7,7,8,8,9,9,10,10,11,11,12,12,16,16,17,17,21,21,22,22,23,23],"right_children":[2,4,6,-1,8,10,12,14,16,18,20,22,24,-1,-1,-1,26,28,-1,-1,-1,30,32,34,-1,-1,-1,-1,-1,-1,-1,-1,-1,-1,-1],"split_conditions":[1.4196613E1,1.33598E1,1.2679089E1,-3.556901E-2,3.021704E1,1.1469016E1,2.6415344E1,1.41829605E1,1.5565954E1,1.0641779E1,2.6013653E1,1.4903507E1,1.4684704E1,-2.8519332E-2,-1.8995497E-3,-1.832453E-2,1.3832737E1,3.446355E1,-1.7392002E-3,-5.8831717E-3,1.5360892E-2,1.48165E1,2.5150534E1,3.3305832E1,1.316242E-1,-3.8078427E-3,6.0336427E-3,-2.5073176E-2,-1.7931409E-3,-1.8596727E-2,1.5920863E-3,4.5741707E-2,2.5193787E-3,7.6005096E-3,1.0880112E-1],"split_indices":[1,1,2,0,0,2,0,1,2,2,0,1,1,0,0,0,1,0,0,0,0,1,0,0,0,0,0,0,0,0,0,0,0,0,0],"split_type":[0,0,0,0,0,0,0,0,0,0,0,0,0,0,0,0,0,0,0,0,0,0,0,0,0,0,0,0,0,0,0,0,0,0,0],"sum_hessian":[2.56E2,1.65E2,9.1E1,1.01E2,6.4E1,2.9E1,6.2E1,4.1E1,2.3E1,2.6E1,3E0,1.5E1,4.7E1,4E1,1E0,9E0,1.4E1,2.5E1,1E0,1E0,2E0,1.2E1,3E0,2.6E1,2.1E1,1E1,4E0,2.4E1,1E0,1.1E1,1E0,2E0,1E0,1.5E1,1.1E1],"tree_param":{"num_deleted":"0","num_feature":"3","num_nodes":"35","size_leaf_vector":"0"}},{"base_weights":[-6.153405E-1,-3.087321E-1,-1.117402E0,-2.4746849E-1,-3.7214464E-1,-2.9149312E-1,-1.3948385E0,-5.05103E-1,-1.5979645E0,-1.4401144E-1,-5.858492E-1],"categories":[],"categories_nodes":[],"categories_segments":[],"categories_sizes":[],"default_left":[1,1,1,0,0,0,1,1,0,0,0],"id":16,"left_children":[1,3,5,-1,-1,-1,7,9,-1,-1,-1],"loss_changes":[3.8252472E1,1.0761452E-1,1.9778488E1,0E0,0E0,0E0,7.9595184E0,1.3264608E-1,0E0,0E0,0E0],"parents":[2147483647,0,0,1,1,2,2,6,6,7,7],"right_children":[2,4,6,-1,-1,-1,8,10,-1,-1,-1],"split_conditions":[1.4196613E1,1.3218732E1,1.1469016E1,-2.4746848E-2,-3.7214465E-2,-2.9149313E-2,2.6415344E1,2.3652817E1,-1.5979646E-1,-1.4401144E-2,-5.8584925E-2],"split_indices":[1,1,2,0,0,0,0,0,0,0,0],"split_type":[0,0,0,0,0,0,0,0,0,0,0],"sum_hessian":[2.56E2,1.65E2,9.1E1,9.9E1,6.6E1,2.6E1,6.5E1,1.6E1,4.9E1,6E0,1E1],"tree_param":{"num_deleted":"0","num_feature":"3","num_nodes":"11","size_leaf_vector":"0"}},{"base_weights":[2.582565E-1,6.253881E-2,3.4529316E-1,-3.5335466E-2,1.3766617E-1,1.5641402E-1,4.126099E-1,-5.0773457E-2,1.3796626E-2,4.6668608E-2,2.4456233E-1,8.054705E-2,2.1749322E-1,2.2569479E-1,5.064713E-1,-5.4860663E-2,-1.22339E-2,-2.3658236E-3,1.596567E-2,-1.3085173E-2,6.173553E-2,-1.0286908E-3,2.8357098E-1,6.2214263E-2,2.6830566E-1,5.095396E-1,3.701781E-2,-1.90199E-2,4.1575343E-3,1.0004257E-2,7.257833E-2,-2.8048723E-3,1.8822552E-3],"categories":[],"categories_nodes":[],"categories_segments":[],"categories_sizes":[],"default_left":[1,1,1,1,1,1,1,1,1,1,1,0,0,1,1,0,0,0,0,1,1,1,0,0,0,0,0,0,0,0,0,0,0],"id":17,"left_children":[1,3,5,7,9,11,13,15,17,19,21,-1,-1,23,25,-1,-1,-1,-1,27,29,31,-1,-1,-1,-1,-1,-1,-1,-1,-1,-1,-1],"loss_changes":[4.33329E0,6.768271E-1,1.8989944E0,3.688697E-2,4.2753243E-1,1.5841722E-1,1.5728035E0,1.3046041E-3,7.5590354E-4,3.6437728E-2,2.1297681E-1,0E0,0E0,2.755561E-1,2.6855469E-3,0E0,0E0,0E0,0E0,1.7109322E-3,1.1902139E-2,7.8700294E-5,0E0,0E0,0E0,0E0,0E0,0E0,0E0,0E0,0E0,0E0,0E0],"parents":[2147483647,0,0,1,1,2,2,3,3,4,4,5,5,6,6,7,7,8,8,9,9,10,10,13,13,14,14,19,19,20,20,21,21],"right_children":[2,4,6,8,10,12,14,16,18,20,22,-1,-1,24,26,-1,-1,-1,-1,28,30,32,-1,-1,-1,-1,-1,-1,-1,-1,-1,-1,-1],"split_conditions":[2.7768417E1,1.3745114E1,1.2355316E1,2.609483E1,1.4286024E1,3.1442467E1,1.2969487E1,2.5187819E1,2.6355602E1,2.4230373E1,2.3299389E1,8.054705E-3,2.1749323E-2,2.9652922E1,1.344E2,-5.4860665E-3,-1.22339E-3,-2.3658236E-4,1.5965671E-3,1.4093015E1,1.2324606E1,2.2569939E1,2.8357098E-2,6.221426E-3,2.6830567E-2,5.0953962E-2,3.7017812E-3,-1.90199E-3,4.1575343E-4,1.0004257E-3,7.2578336E-3,-2.8048723E-4,1.8822552E-4],"split_indices":[0,2,2,0,1,0,1,0,0,0,0,0,0,0,2,0,0,0,0,1,1,0,0,0,0,0,0,0,0,0,0,0,0],"split_type":[0,0,0,0,0,0,0,0,0,0,0,0,0,0,0,0,0,0,0,0,0,0,0,0,0,0,0,0,0,0,0,0,0],"sum_hessian":[2.56E2,8.2E1,1.74E2,3.7E1,4.5E1,5.1E1,1.23E2,2.8E1,9E0,2.9E1,1.6E1,2.9E1,2.2E1,4.8E1,7.5E1,2.3E1,5E0,1E0,8E0,6E0,2.3E1,3E0,1.3E1,1.3E1,3.5E1,7.4E1,1E0,4E0,2E0,6E0,1.7E1,2E0,1E0],"tree_param":{"num_deleted":"0","num_feature":"3","num_nodes":"33","size_leaf_vector":"0"}},{"base_weights":[2.8372562E1,1.6236256E1,2.9992764E1,2.2821833E1,3.361681E1,1.9644505E1,3.6138275E1],"categories":[],"categories_nodes":[],"categories_segments":[],"categories_sizes":[],"default_left":[1,0,1,0,1,0,0],"id":18,"left_children":[1,-1,3,-1,5,-1,-1],"loss_changes":[2.2080312E3,0E0,1.1833125E3,0E0,5.0023438E2,0E0,0E0],"parents":[2147483647,0,0,2,2,4,4],"right_children":[2,-1,4,-1,6,-1,-1],"split_conditions":[2.5083786E1,1.6236256E0,1.3177401E1,2.2821834E0,1.0184095E1,1.9644505E0,3.6138275E0],"split_indices":[0,0,1,0,2,0,0],"split_type":[0,0,0,0,0,0,0],"sum_hessian":[2.56E2,3.8E1,2.18E2,8.8E1,1.3E2,2.8E1,1.02E2],"tree_param":{"num_deleted":"0","num_feature":"3","num_nodes":"7","size_leaf_vector":"0"}},{"base_weights":[1.1811916E0,1.7915574E-1,1.7829705E0,-1.1365151E-1,3.553595E-1,5.203991E-1,1.9782639E0,-1.5788125E-1,6.461413E-2,1.3735415E-1,6.666308E-1,1.4358157E-1,6.177514E-1,1.3737252E0,2.2858899E0,8.047721E-3,9.371458E-2,-1.8550644E-2,2.067961E-1,2.961355E-1,8.556578E-1,-1.1051928E-3,1.5518354E-1,7.700589E-2,6.484716E-1,5.458417E-1,1.8092023E0,4.9301037E-1,2.3625517E0,-9.467785E-3,1.5489445E-2,-4.1482165E-2,3.7057936E-2,3.8299193E-3,2.1912497E-1,2.6427718E-2,3.1979176E-1,8.156506E-3,1.6329397E-1,4.3437505E-1,1.9377322E0],"categories":[],"categories_nodes":[],"categories_segments":[],"categories_sizes":[],"default_left":[1,1,1,1,1,1,1,0,1,1,1,1,1,1,1,1,0,1,1,1,0,0,1,0,0,0,1,0,0,0,0,0,0,0,0,0,0,0,0,0,0],"id":19,"left_children":[1,3,5,7,9,11,13,-1,15,17,19,21,23,25,27,29,-1,31,33,35,-1,-1,37,-1,-1,-1,39,-1,-1,-1,-1,-1,-1,-1,-1,-1,-1,-1,-1,-1,-1],"loss_changes":[1.560838E2,5.6639795E0,3.3977478E1,4.089806E-1,3.9960413E0,5.6589603E-1,6.8704834E0,0E0,1.6916104E-2,5.325425E-1,2.919302E-1,2.4616927E-2,6.4279556E-2,1.639788E1,4.371216E0,2.3266962E-3,0E0,3.4859143E-2,7.761991E-2,6.403983E-2,0E0,0E0,7.503897E-3,0E0,0E0,0E0,1.6334381E0,0E0,0E0,0E0,0E0,0E0,0E0,0E0,0E0,0E0,0E0,0E0,0E0,0E0,0E0],"parents":[2147483647,0,0,1,1,2,2,3,3,4,4,5,5,6,6,8,8,9,9,10,10,11,11,12,12,13,13,14,14,15,15,17,17,18,18,19,19,22,22,26,26],"right_children":[2,4,6,8,10,12,14,-1,16,18,20,22,24,26,28,30,-1,32,34,36,-1,-1,38,-1,-1,-1,40,-1,-1,-1,-1,-1,-1,-1,-1,-1,-1,-1,-1,-1,-1],"split_conditions":[1.3218732E1,1.1783976E1,2.4589863E1,3.3047028E1,3.1399223E1,1.4189413E1,1.4152657E1,-1.5788125E-2,3.4599335E1,1.2576536E1,1.2294151E1,1.3456465E1,4.2033863E0,2.8990498E1,3.9190016E0,1.0806364E1,9.371459E-3,2.9400002E1,2.5845762E1,1.594758E1,8.556578E-2,-1.10519286E-4,2.2440624E1,7.7005895E-3,6.4847164E-2,5.458417E-2,6.191644E0,4.930104E-2,2.3625517E-1,-9.467785E-4,1.5489445E-3,-4.1482165E-3,3.7057938E-3,3.8299194E-4,2.1912498E-2,2.642772E-3,3.1979177E-2,8.156506E-4,1.6329398E-2,4.3437507E-2,1.9377322E-1],"split_indices":[1,1,0,0,0,1,1,0,0,1,1,1,2,0,2,1,0,0,0,2,0,0,0,0,0,0,2,0,0,0,0,0,0,0,0,0,0,0,0,0,0],"split_type":[0,0,0,0,0,0,0,0,0,0,0,0,0,0,0,0,0,0,0,0,0,0,0,0,0,0,0,0,0,0,0,0,0,0,0,0,0,0,0,0,0],"sum_hessian":[2.56E2,9.9E1,1.57E2,3.8E1,6.1E1,2.4E1,1.33E2,3.1E1,7E0,4.1E1,2E1,8E0,1.6E1,5.6E1,7.7E1,5E0,2E0,1.4E1,2.7E1,1.2E1,8E0,1E0,7E0,2E0,1.4E1,2.4E1,3.2E1,5E0,7.2E1,1E0,4E0,1.1E1,3E0,2E0,2.5E1,2E0,1E1,1E0,6E0,5E0,2.7E1],"tree_param":{"num_deleted":"0","num_feature":"3","num_nodes":"41","size_leaf_vector":"0"}},{"base_weights":[9.349416E0,6.6538444E0,9.93452E0],"categories":[],"categories_nodes":[],"categories_segments":[],"categories_sizes":[],"default_left":[1,0,0],"id":20,"left_children":[1,-1,-1],"loss_changes":[1.3580078E1,0E0,0E0],"parents":[2147483647,0,0],"right_children":[2,-1,-1],"split_conditions":[1.21773E1,6.653845E-1,9.93452E-1],"split_indices":[1,0,0],"split_type":[0,0,0],"sum_hessian":[2.56E2,5.9E1,1.97E2],"tree_param":{"num_deleted":"0","num_feature":"3","num_nodes":"3","size_leaf_vector":"0"}},{"base_weights":[-1.1405972E-2,-2.8758052E-1,4.7606733E-1,-3.2319972E-1,-2.1150985E-1,-1.3206595E-1,8.018753E-1,-2.5996014E-1,-9.146868E-2,-2.2396375E-1,1.5487039E-1,6.471071E-2,1.0002693E0,-2.6268086E-1,-1.8725941E-2,-1.7228484E-1,-7.4119032E-3,-1.0148921E-1,2.925023E-1,-1.447228E-1,4.1609E-1,-5.4197166E-2,4.6394512E-2,1.6307846E-2,3.121314E-1,-1.6063388E-1,1.5694933E-2,4.4604832E-1,2.4836272E-2],"categories":[],"categories_nodes":[],"categories_segments":[],"categories_sizes":[],"default_left":[1,1,1,0,1,1,1,1,1,0,1,1,0,0,0,0,1,0,1,1,1,0,0,0,0,0,0,0,0],"id":21,"left_children":[1,3,5,-1,7,9,11,13,15,-1,17,19,-1,-1,-1,-1,21,-1,23,25,27,-1,-1,-1,-1,-1,-1,-1,-1],"loss_changes":[3.6106644E1,5.0099373E-2,1.9868723E1,0E0,2.7524233E-1,1.2393596E0,8.975391E0,1.7898083E-3,1.9639134E-1,0E0,6.398443E-1,1.8393937E0,0E0,0E0,0E0,0E0,6.818698E-2,0E0,2.3688912E-2,5.8755875E-2,3.9052844E-2,0E0,0E0,0E0,0E0,0E0,0E0,0E0,0E0],"parents":[2147483647,0,0,1,1,2,2,4,4,5,5,6,6,7,7,8,8,10,10,11,11,16,16,18,18,19,19,20,20],"right_children":[2,4,6,-1,8,10,12,14,16,-1,18,20,-1,-1,-1,-1,22,-1,24,26,28,-1,-1,-1,-1,-1,-1,-1,-1],"split_conditions":[1.4196613E1,1.3218732E1,1.4002878E1,-3.2319974E-2,3.021704E1,1.1469016E1,2.6415344E1,1.41829605E1,1.5565954E1,-2.2396376E-2,2.8863155E1,1.4903507E1,1.0002693E-1,-2.6268085E-2,-1.8725941E-3,-1.7228484E-2,1.3714327E1,-1.0148921E-2,1.4602045E1,1.48165E1,2.5150534E1,-5.4197167E-3,4.6394514E-3,1.6307846E-3,3.121314E-2,-1.6063388E-2,1.5694933E-3,4.4604834E-2,2.4836273E-3],"split_indices":[1,1,2,0,0,2,0,1,2,0,0,1,0,0,0,0,1,0,1,1,0,0,0,0,0,0,0,0,0],"split_type":[0,0,0,0,0,0,0,0,0,0,0,0,0,0,0,0,0,0,0,0,0,0,0,0,0,0,0,0,0],"sum_hessian":[2.56E2,1.65E2,9.1E1,9.9E1,6.6E1,3.3E1,5.8E1,4.2E1,2.4E1,2.6E1,7E0,1.4E1,4.4E1,4.1E1,1E0,9E0,1.5E1,3E0,4E0,1.1E1,3E0,8E0,7E0,1E0,3E0,1E1,1E0,2E0,1E0],"tree_param":{"num_deleted":"0","num_feature":"3","num_nodes":"29","size_leaf_vector":"0"}},{"base_weights":[-5.612805E-1,-2.8004935E-1,-1.0219826E0,-2.2186853E-1,-3.3508858E-1,-3.6214668E-1,-1.3277696E0,-1.962972E-1,-3.8347492E-1,-4.9677998E-1,-1.5002055E0,-2.130604E-1,-6.5094113E-1],"categories":[],"categories_nodes":[],"categories_segments":[],"categories_sizes":[],"default_left":[1,1,1,0,1,0,1,0,0,1,0,0,0],"id":22,"left_children":[1,3,5,-1,7,-1,9,-1,-1,11,-1,-1,-1],"loss_changes":[3.222113E1,9.8171234E-2,1.6673447E1,0E0,5.552101E-2,0E0,4.6708527E0,0E0,0E0,3.817892E-2,0E0,0E0,0E0],"parents":[2147483647,0,0,1,1,2,2,4,4,6,6,9,9],"right_children":[2,4,6,-1,8,-1,10,-1,-1,12,-1,-1,-1],"split_conditions":[1.4196613E1,1.2926439E1,1.4002878E1,-2.2186853E-2,2.7878235E1,-3.621467E-2,2.6415344E1,-1.962972E-2,-3.8347494E-2,1.48165E1,-1.5002055E-1,-2.130604E-2,-6.509411E-2],"split_indices":[1,1,2,0,0,0,0,0,0,1,0,0,0],"split_type":[0,0,0,0,0,0,0,0,0,0,0,0,0],"sum_hessian":[2.56E2,1.65E2,9.1E1,9.5E1,7E1,3.3E1,5.8E1,2.6E1,4.4E1,1.4E1,4.4E1,1E1,4E0],"tree_param":{"num_deleted":"0","num_feature":"3","num_nodes":"13","size_leaf_vector":"0"}},{"base_weights":[2.3582755E-1,1.3077037E-1,3.805595E-1,1.7455498E-2,2.0063597E-1,1.6701195E-1,4.333194E-1,-4.455066E-2,7.3427945E-2,1.199918E-1,3.1601298E-1,1.1491861E-2,1.6987513E-1,1.1567043E-1,4.491839E-1,-4.8568543E-2,-4.9211234E-3,2.3192586E-2,8.867353E-2,3.8425475E-2,1.6798413E-1,8.853192E-4,3.5399407E-1,-6.2282286E-3,9.797396E-4,-1.8262658E-2,5.003377E-2,6.323524E-2,2.0290273E-1,-2.735156E-3,3.8405152E-3],"categories":[],"categories_nodes":[],"categories_segments":[],"categories_sizes":[],"default_left":[1,1,1,1,1,1,1,1,1,1,1,0,0,0,0,0,1,0,0,1,1,1,0,0,0,0,0,0,0,0,0],"id":23,"left_children":[1,3,5,7,9,11,13,15,17,19,21,-1,-1,-1,-1,-1,23,-1,-1,25,27,29,-1,-1,-1,-1,-1,-1,-1,-1,-1],"loss_changes":[3.683529E0,1.2538006E0,7.684593E-1,2.5594705E-1,6.9228816E-1,2.0200014E-3,9.928131E-2,4.294358E-3,1.670301E-2,2.2734153E-1,4.4151545E-1,0E0,0E0,0E0,0E0,0E0,1.14390656E-4,0E0,0E0,2.7271952E-2,7.255113E-2,1.71013E-4,0E0,0E0,0E0,0E0,0E0,0E0,0E0,0E0,0E0],"parents":[2147483647,0,0,1,1,2,2,3,3,4,4,5,5,6,6,7,7,8,8,9,9,10,10,16,16,19,19,20,20,21,21],"right_children":[2,4,6,8,10,12,14,16,18,20,22,-1,-1,-1,-1,-1,24,-1,-1,26,28,30,-1,-1,-1,-1,-1,-1,-1,-1,-1],"split_conditions":[3.021704E1,1.3482174E1,1.1098852E1,2.6662567E1,1.4139533E1,3.0668953E1,1.1284197E1,2.5748907E1,2.8782417E1,2.7995647E1,2.3652817E1,1.1491862E-3,1.6987514E-2,1.1567043E-2,4.491839E-2,-4.856854E-3,2.6355602E1,2.3192586E-3,8.867353E-3,2.4230373E1,1.2200001E1,2.2569939E1,3.5399407E-2,-6.2282284E-4,9.797396E-5,-1.8262658E-3,5.0033773E-3,6.323524E-3,2.0290274E-2,-2.7351562E-4,3.8405153E-4],"split_indices":[0,2,2,0,1,0,1,0,0,0,0,0,0,0,0,0,0,0,0,0,1,0,0,0,0,0,0,0,0,0,0],"split_type":[0,0,0,0,0,0,0,0,0,0,0,0,0,0,0,0,0,0,0,0,0,0,0,0,0,0,0,0,0,0,0],"sum_hessian":[2.56E2,1.55E2,1.01E2,6.2E1,9.3E1,2.5E1,7.6E1,3E1,3.2E1,6.2E1,3.1E1,1E0,2.4E1,6E0,7E1,2.6E1,4E0,1.1E1,2.1E1,2.7E1,3.5E1,4E0,2.7E1,3E0,1E0,4E0,2.3E1,1.3E1,2.2E1,2E0,2E0],"tree_param":{"num_deleted":"0","num_feature":"3","num_nodes":"31","size_leaf_vector":"0"}},{"base_weights":[2.5754158E1,1.9019442E1,2.8664766E1,2.05507E1,3.1828281E1],"categories":[],"categories_nodes":[],"categories_segments":[],"categories_sizes":[],"default_left":[1,0,1,0,0],"id":24,"left_children":[1,-1,3,-1,-1],"loss_changes":[1.8399688E3,0E0,4.35375E2,0E0,0E0],"parents":[2147483647,0,0,2,2],"right_children":[2,-1,4,-1,-1],"split_conditions":[1.3288502E1,1.9019442E0,1.2969487E1,2.05507E0,3.1828282E0],"split_indices":[2,0,1,0,0],"split_type":[0,0,0,0,0],"sum_hessian":[2.56E2,9.1E1,1.65E2,5.9E1,1.06E2],"tree_param":{"num_deleted":"0","num_feature":"3","num_nodes":"5","size_leaf_vector":"0"}},{"base_weights":[1.0816058E0,1.6908187E-1,1.629408E0,1.0794626E-2,4.7026023E-1,4.8638746E-1,1.8055453E0,-1.1395715E-1,1.9019608E-1,2.600756E-3,6.25295E-1,1.3655642E-1,5.758742E-1,1.1799146E0,2.0290356E0,-1.5090707E-1,-1.6829032E-2,3.0850587E-2,2.1195169E-1,-3.152714E-2,2.2444338E-2,2.9282868E-1,8.069263E-1,-1.0895112E-3,1.4761147E-1,7.5091965E-2,6.0318476E-1,3.8348725E-1,1.6182721E0,8.0227E-1,2.149332E0,-3.880541E-2,3.5829075E-2,-9.088098E-3,4.0295642E-2,8.857105E-2,2.6014856E-1,-4.1924887E-3,2.9561738E-2,6.051266E-3,3.0669177E-1,8.040763E-3,1.5516105E-1,1.6481979E0,1.0204405E-1],"categories":[],"categories_nodes":[],"categories_segments":[],"categories_sizes":[],"default_left":[1,1,1,1,1,1,1,1,1,1,1,1,1,1,1,0,1,1,1,0,1,1,0,0,1,0,0,0,1,0,0,0,0,0,0,0,0,0,0,0,0,0,0,0,0],"id":25,"left_children":[1,3,5,7,9,11,13,15,17,19,21,23,25,27,29,-1,31,33,35,-1,37,39,-1,-1,41,-1,-1,-1,43,-1,-1,-1,-1,-1,-1,-1,-1,-1,-1,-1,-1,-1,-1,-1,-1],"loss_changes":[1.2932672E2,4.977173E0,2.7515656E1,1.8106601E0,2.603691E0,4.6510172E-1,4.965088E0,1.5707749E-1,7.502258E-2,1.4468874E-2,2.044344E-1,2.234742E-2,2.7637005E-2,1.4068855E1,3.452057E0,0E0,3.160634E-2,6.3815825E-3,2.745235E-2,0E0,3.2229316E-3,6.450117E-2,0E0,0E0,6.2033236E-3,0E0,0E0,0E0,3.91716E-1,0E0,0E0,0E0,0E0,0E0,0E0,0E0,0E0,0E0,0E0,0E0,0E0,0E0,0E0,0E0,0E0],"parents":[2147483647,0,0,1,1,2,2,3,3,4,4,5,5,6,6,7,7,8,8,9,9,10,10,11,11,12,12,13,13,14,14,16,16,17,17,18,18,20,20,21,21,24,24,28,28],"right_children":[2,4,6,8,10,12,14,16,18,20,22,24,26,28,30,-1,32,34,36,-1,38,40,-1,-1,42,-1,-1,-1,44,-1,-1,-1,-1,-1,-1,-1,-1,-1,-1,-1,-1,-1,-1,-1,-1],"split_conditions":[1.3218732E1,3.1564232E1,2.4589863E1,1.2576536E1,1.1479122E1,1.4189413E1,1.3918795E1,1.1783976E1,2.7236254E1,1.0806364E1,1.2294151E1,1.3456465E1,4.2033863E0,2.8990498E1,6.1546E0,-1.5090707E-2,2.9400002E1,1.0970456E1,1.1511156E1,-3.1527139E-3,3.26E1,3.1896576E1,8.0692634E-2,-1.0895112E-4,2.2440624E1,7.5091966E-3,6.0318477E-2,3.8348727E-2,1.3875896E1,8.0227E-2,2.149332E-1,-3.880541E-3,3.5829076E-3,-9.0880983E-4,4.029564E-3,8.857105E-3,2.6014855E-2,-4.1924889E-4,2.9561738E-3,6.051266E-4,3.0669177E-2,8.040764E-4,1.5516105E-2,1.6481979E-1,1.02044055E-2],"split_indices":[1,0,0,1,1,1,1,1,0,1,1,1,2,0,2,0,0,2,2,0,0,0,0,0,0,0,0,0,1,0,0,0,0,0,0,0,0,0,0,0,0,0,0,0,0],"split_type":[0,0,0,0,0,0,0,0,0,0,0,0,0,0,0,0,0,0,0,0,0,0,0,0,0,0,0,0,0,0,0,0,0,0,0,0,0,0,0,0,0,0,0,0,0],"sum_hessian":[2.56E2,9.9E1,1.57E2,6.9E1,3E1,2.4E1,1.33E2,4.2E1,2.7E1,9E0,2.1E1,8E0,1.6E1,4.5E1,8.8E1,2.8E1,1.4E1,5E0,2.2E1,2E0,7E0,1.3E1,8E0,1E0,7E0,2E0,1.4E1,2E1,2.5E1,1.2E1,7.6E1,1.1E1,3E0,1E0,4E0,1.1E1,1.1E1,2E0,5E0,1E0,1.2E1,1E0,6E0,2.4E1,1E0],"tree_param":{"num_deleted":"0","num_feature":"3","num_nodes":"45","size_leaf_vector":"0"}},{"base_weights":[8.452753E0,6.61299E0,9.243899E0],"categories":[],"categories_nodes":[],"categories_segments":[],"categories_sizes":[],"default_left":[1,0,0],"id":26,"left_children":[1,-1,-1],"loss_changes":[1.1769531E1,0E0,0E0],"parents":[2147483647,0,0],"right_children":[2,-1,-1],"split_conditions":[1.2828419E1,6.61299E-1,9.2438996E-1],"split_indices":[1,0,0],"split_type":[0,0,0],"sum_hessian":[2.56E2,9.4E1,1.62E2],"tree_param":{"num_deleted":"0","num_feature":"3","num_nodes":"3","size_leaf_vector":"0"}},{"base_weights":[-9.008881E-3,-2.6159656E-1,4.3674275E-1,-2.652162E-1,-6.399537E-2,-3.6186308E-2,8.01556E-1,-8.9856125E-2,2.7788829E-2,-2.0579332E-1,2.2027579E-1,1.033737E-1,9.617242E-1,-2.0925161E-1,-1.3967007E-2,-1.2096288E-1,4.666903E-1,-1.3600366E-1,4.0595466E-1,-2.1281539E-1,-1.4498759E-2,-1.3859113E-1,1.547221E-2,1.6076427E-2,4.937773E-1,-1.4503501E-1,-2.5787947E-3,4.3496206E-1,2.4483832E-2],"categories":[],"categories_nodes":[],"categories_segments":[],"categories_sizes":[],"default_left":[1,1,1,0,1,1,1,0,0,1,1,1,0,1,0,1,1,1,1,0,0,0,0,0,0,0,0,0,0],"id":27,"left_children":[1,3,5,-1,7,9,11,-1,-1,13,15,17,-1,19,-1,21,23,25,27,-1,-1,-1,-1,-1,-1,-1,-1,-1,-1],"loss_changes":[3.019508E1,1.9708633E-2,1.691897E1,0E0,4.13201E-2,2.3640466E0,5.5545464E0,0E0,0E0,3.5870075E-3,2.1952E0,1.5685817E0,0E0,2.8902292E-3,0E0,4.67508E-2,1.2345195E-1,1.4664948E-2,3.5711527E-2,0E0,0E0,0E0,0E0,0E0,0E0,0E0,0E0,0E0,0E0],"parents":[2147483647,0,0,1,1,2,2,4,4,5,5,6,6,9,9,10,10,11,11,13,13,15,15,16,16,17,17,18,18],"right_children":[2,4,6,-1,8,10,12,-1,-1,14,16,18,-1,20,-1,22,24,26,28,-1,-1,-1,-1,-1,-1,-1,-1,-1,-1],"split_conditions":[1.4196613E1,1.411866E1,1.6800083E1,-2.6521621E-2,3.0229027E1,1.1469016E1,2.633823E1,-8.985613E-3,2.7788829E-3,1.0641779E1,2.8863155E1,1.4798016E1,9.617242E-2,3.446355E1,-1.3967007E-3,1.48165E1,1.4358276E1,2.573005E1,2.5150534E1,-2.1281539E-2,-1.4498759E-3,-1.3859113E-2,1.547221E-3,1.6076427E-3,4.9377732E-2,-1.4503501E-2,-2.5787947E-4,4.3496206E-2,2.4483833E-3],"split_indices":[1,1,2,0,0,2,0,0,0,2,0,1,0,0,0,1,1,0,0,0,0,0,0,0,0,0,0,0,0],"split_type":[0,0,0,0,0,0,0,0,0,0,0,0,0,0,0,0,0,0,0,0,0,0,0,0,0,0,0,0,0],"sum_hessian":[2.56E2,1.65E2,9.1E1,1.6E2,5E0,4.2E1,4.9E1,4E0,1E0,2.6E1,1.6E1,1.1E1,3.8E1,2.5E1,1E0,8E0,8E0,8E0,3E0,2.4E1,1E0,7E0,1E0,1E0,7E0,7E0,1E0,2E0,1E0],"tree_param":{"num_deleted":"0","num_feature":"3","num_nodes":"29","size_leaf_vector":"0"}},{"base_weights":[-5.132935E-1,-2.548784E-1,-9.3677187E-1,-2.0140648E-1,-3.0705142E-1,-4.148416E-1,-1.2894269E0,-1.803714E-1,-3.5196745E-1,-1.9866174E-1,-5.6539315E-1,-8.746918E-2,-1.3485458E0,-2.0520407E-1,-2.1527002E-3,-2.1772817E-1,-7.0894897E-1],"categories":[],"categories_nodes":[],"categories_segments":[],"categories_sizes":[],"default_left":[1,1,1,0,1,1,1,0,0,1,1,0,0,0,0,0,0],"id":28,"left_children":[1,3,5,-1,7,9,11,-1,-1,13,15,-1,-1,-1,-1,-1,-1],"loss_changes":[2.723285E1,1.03232384E-1,1.4628052E1,0E0,4.3128014E-2,8.845444E-1,3.1982803E0,0E0,0E0,3.467226E-2,3.1668663E-1,0E0,0E0,0E0,0E0,0E0,0E0],"parents":[2147483647,0,0,1,1,2,2,4,4,5,5,6,6,9,9,10,10],"right_children":[2,4,6,-1,8,10,12,-1,-1,14,16,-1,-1,-1,-1,-1,-1],"split_conditions":[1.4196613E1,1.3031338E1,1.6800083E1,-2.0140648E-2,2.7878235E1,2.9364056E1,2.3652817E1,-1.803714E-2,-3.5196748E-2,1.600206E1,9.879559E0,-8.746918E-3,-1.3485458E-1,-2.0520408E-2,-2.1527002E-4,-2.1772817E-2,-7.08949E-2],"split_indices":[1,1,2,0,0,0,0,0,0,2,2,0,0,0,0,0,0],"split_type":[0,0,0,0,0,0,0,0,0,0,0,0,0,0,0,0,0],"sum_hessian":[2.56E2,1.65E2,9.1E1,9.6E1,6.9E1,4.2E1,4.9E1,2.6E1,4.3E1,2.3E1,1.9E1,3E0,4.6E1,2.2E1,1E0,1E1,9E0],"tree_param":{"num_deleted":"0","num_feature":"3","num_nodes":"17","size_leaf_vector":"0"}},{"base_weights":[2.1560755E-1,1.2036317E-1,3.4671882E-1,4.8895827E-3,1.7833783E-1,1.5384318E-1,3.9415044E-1,-4.3555222E-2,4.9620204E-2,1.312085E-1,3.5442826E-1,1.9678768E-2,1.5898429E-1,1.09909415E-1,4.0783718E-1,-4.9396366E-2,-1.2154922E-2,1.0246371E-2,5.5834234E-2,4.4481557E-2,1.8776709E-1,-5.0451163E-2,-3.4102607E-3,-1.2239182E-2,7.2442465E-2,8.8610314E-2,2.6411834E-1],"categories":[],"categories_nodes":[],"categories_segments":[],"categories_sizes":[],"default_left":[1,1,1,1,1,1,1,1,1,1,0,0,0,0,0,1,0,0,0,1,1,0,0,0,0,0,0],"id":29,"left_children":[1,3,5,7,9,11,13,15,17,19,-1,-1,-1,-1,-1,21,-1,-1,-1,23,25,-1,-1,-1,-1,-1,-1],"loss_changes":[3.01999E0,1.0728621E0,6.126394E-1,1.4318827E-1,6.0717964E-1,2.4963021E-3,4.813671E-2,2.2472255E-3,4.8708394E-3,4.1080976E-1,0E0,0E0,0E0,0E0,0E0,1.7454475E-4,0E0,0E0,0E0,7.6804124E-2,2.752266E-1,0E0,0E0,0E0,0E0,0E0,0E0],"parents":[2147483647,0,0,1,1,2,2,3,3,4,4,5,5,6,6,7,7,8,8,9,9,15,15,19,19,20,20],"right_children":[2,4,6,8,10,12,14,16,18,20,-1,-1,-1,-1,-1,22,-1,-1,-1,24,26,-1,-1,-1,-1,-1,-1],"split_conditions":[3.021704E1,1.20280075E1,1.1098852E1,2.6355602E1,1.4744759E1,3.0943615E1,1.1284197E1,2.494107E1,2.7653511E1,2.7024746E1,3.5442825E-2,1.967877E-3,1.5898429E-2,1.0990942E-2,4.078372E-2,1.5694702E1,-1.2154923E-3,1.0246371E-3,5.5834237E-3,2.4600273E1,1.3132294E1,-5.0451164E-3,-3.4102608E-4,-1.2239183E-3,7.2442465E-3,8.861031E-3,2.6411835E-2],"split_indices":[0,2,2,0,1,0,1,0,0,0,0,0,0,0,0,1,0,0,0,0,1,0,0,0,0,0,0],"split_type":[0,0,0,0,0,0,0,0,0,0,0,0,0,0,0,0,0,0,0,0,0,0,0,0,0,0,0],"sum_hessian":[2.56E2,1.55E2,1.01E2,5.4E1,1.01E2,2.5E1,7.6E1,2.6E1,2.8E1,8.8E1,1.3E1,2E0,2.3E1,6E0,7E1,1.9E1,7E0,6E0,2.2E1,3.9E1,4.9E1,1.8E1,1E0,1.4E1,2.5E1,2.7E1,2.2E1],"tree_param":{"num_deleted":"0","num_feature":"3","num_nodes":"27","size_leaf_vector":"0"}},{"base_weights":[2.3343498E1,1.6431835E1,2.5939459E1],"categories":[],"categories_nodes":[],"categories_segments":[],"categories_sizes":[],"default_left":[1,0,0],"id":30,"left_children":[1,-1,-1],"loss_changes":[2.1243594E3,0E0,0E0],"parents":[2147483647,0,0],"right_children":[2,-1,-1],"split_conditions":[2.7768417E1,1.6431836E0,2.593946E0],"split_indices":[0,0,0],"split_type":[0,0,0],"sum_hessian":[2.56E2,8.2E1,1.74E2],"tree_param":{"num_deleted":"0","num_feature":"3","num_nodes":"3","size_leaf_vector":"0"}},{"base_weights":[9.9021024E-1,1.5988466E-1,1.4884437E0,3.2954812E-2,5.01253E-1,8.23888E-1,1.7806187E0,-8.705915E-2,2.1234608E-1,2.068298E-2,6.2636596E-1,3.2668135E-1,1.212181E0,9.821029E-1,1.9267403E0,-1.3315682E-1,9.882911E-3,8.242405E-2,2.7508685E-1,-8.886037E-3,2.8223738E-2,3.224499E-2,3.583355E-1,2.725205E-1,1.5076238E0,2.7097628E-2,1.0103109E0,1.9381809E0,1.3696639E-1,-1.3849655E-1,-2.4060095E-2,-3.6301386E-2,7.027506E-2,3.3468984E-3,9.006614E-2,3.3012602E-2,3.0426633E-1,3.6645807E-2,-1.0740495E-3,9.820054E-2,3.969431E-1,2.5627246E-1,1.1066597E0],"categories":[],"categories_nodes":[],"categories_segments":[],"categories_sizes":[],"default_left":[1,1,1,1,1,1,1,1,1,1,0,1,1,1,1,1,1,1,1,0,0,1,1,0,0,0,1,0,0,0,0,0,0,0,0,0,0,0,0,0,0,0,0],"id":31,"left_children":[1,3,5,7,9,11,13,15,17,19,-1,21,23,25,27,29,31,33,35,-1,-1,37,39,-1,-1,-1,41,-1,-1,-1,-1,-1,-1,-1,-1,-1,-1,-1,-1,-1,-1,-1,-1],"loss_changes":[1.0696872E2,4.4517775E0,2.2787292E1,1.8997415E0,1.607997E0,9.391277E0,1.1646423E0,2.4948254E-1,1.4857566E-1,4.202675E-3,0E0,2.5677228E-1,6.4123116E0,6.1694527E-1,1.3623047E-1,1.4318824E-3,7.970782E-2,1.0291845E-2,8.792794E-2,0E0,0E0,1.7111879E-3,7.610178E-2,0E0,0E0,0E0,3.2268715E-1,0E0,0E0,0E0,0E0,0E0,0E0,0E0,0E0,0E0,0E0,0E0,0E0,0E0,0E0,0E0,0E0],"parents":[2147483647,0,0,1,1,2,2,3,3,4,4,5,5,6,6,7,7,8,8,9,9,11,11,12,12,13,13,14,14,15,15,16,16,17,17,18,18,21,21,22,22,26,26],"right_children":[2,4,6,8,10,12,14,16,18,20,-1,22,24,26,28,30,32,34,36,-1,-1,38,40,-1,-1,-1,42,-1,-1,-1,-1,-1,-1,-1,-1,-1,-1,-1,-1,-1,-1,-1,-1],"split_conditions":[1.3218732E1,3.2842712E1,2.7768417E1,1.2576536E1,1.1479122E1,1.4295111E1,1.0619905E1,1.1783976E1,1.3674635E1,1.0806364E1,6.26366E-2,2.3159914E1,2.3825268E1,1.3531021E1,1.344E2,3.1564232E1,2.9400002E1,2.6082016E1,2.770803E1,-8.8860374E-4,2.8223738E-3,2.2954203E1,1.3576746E1,2.7252052E-2,1.5076238E-1,2.709763E-3,2.9250164E1,1.9381809E-1,1.369664E-2,-1.3849655E-2,-2.4060095E-3,-3.6301387E-3,7.0275064E-3,3.3468983E-4,9.006615E-3,3.3012603E-3,3.0426634E-2,3.6645809E-3,-1.0740495E-4,9.820054E-3,3.969431E-2,2.5627246E-2,1.1066597E-1],"split_indices":[1,0,0,1,1,1,2,1,2,1,0,0,0,1,2,0,0,0,0,0,0,0,1,0,0,0,0,0,0,0,0,0,0,0,0,0,0,0,0,0,0,0,0],"split_type":[0,0,0,0,0,0,0,0,0,0,0,0,0,0,0,0,0,0,0,0,0,0,0,0,0,0,0,0,0,0,0,0,0,0,0,0,0,0,0,0,0,0,0],"sum_hessian":[2.56E2,9.9E1,1.57E2,7.7E1,2.2E1,5.5E1,1.02E2,4.8E1,2.9E1,6E0,1.6E1,2.9E1,2.6E1,2.3E1,7.9E1,3.1E1,1.7E1,1.4E1,1.5E1,1E0,5E0,4E0,2.5E1,9E0,1.7E1,1E0,2.2E1,7.8E1,1E0,2.8E1,3E0,1.1E1,6E0,2E0,1.2E1,3E0,1.2E1,3E0,1E0,6E0,1.9E1,5E0,1.7E1],"tree_param":{"num_deleted":"0","num_feature":"3","num_nodes":"43","size_leaf_vector":"0"}},{"base_weights":[7.6440682E0,5.4877625E0,8.133262E0],"categories":[],"categories_nodes":[],"categories_segments":[],"categories_sizes":[],"default_left":[1,0,0],"id":32,"left_children":[1,-1,-1],"loss_changes":[6.5273438E0,0E0,0E0],"parents":[2147483647,0,0],"right_children":[2,-1,-1],"split_conditions":[1.2294151E1,5.4877627E-1,8.133262E-1],"split_indices":[1,0,0],"split_type":[0,0,0],"sum_hessian":[2.56E2,6.1E1,1.95E2],"tree_param":{"num_deleted":"0","num_feature":"3","num_nodes":"3","size_leaf_vector":"0"}},{"base_weights":[-5.5887653E-3,-1.462219E-1,6.7330486E-1,-2.3616894E-1,1.7500924E-1,-1.208551E-1,1.0430454E0,-2.664802E-1,-1.0124602E-1,-1.5395121E-1,7.9383034E-1,-1.3946693E-1,3.3155344E-2,-1.7439166E-1,5.4460716E-2,-1.7924339E-1,8.270548E-3,-8.97311E-3,8.912009E-1,9.9238686E-2,-5.641573E-2,5.9694763E-2,-5.575919E-2,1.584829E-2,-2.609474E-2],"categories":[],"categories_nodes":[],"categories_segments":[],"categories_sizes":[],"default_left":[1,1,1,1,1,1,0,0,1,1,1,0,0,0,1,0,1,1,0,0,0,0,0,0,0],"id":33,"left_children":[1,3,5,7,9,11,-1,-1,13,15,17,-1,-1,-1,19,-1,21,23,-1,-1,-1,-1,-1,-1,-1],"loss_changes":[2.561424E1,6.665704E0,1.4283152E1,5.5683136E-1,1.1334063E1,8.5424036E-2,0E0,0E0,5.363138E-1,1.6917145E-1,1.5372419E0,0E0,0E0,0E0,1.2345393E-1,0E0,5.650118E-2,5.9205308E-3,0E0,0E0,0E0,0E0,0E0,0E0,0E0],"parents":[2147483647,0,0,1,1,2,2,3,3,4,4,5,5,8,8,9,9,10,10,14,14,16,16,17,17],"right_children":[2,4,6,8,10,12,-1,-1,14,16,18,-1,-1,-1,20,-1,22,24,-1,-1,-1,-1,-1,-1,-1],"split_conditions":[1.4740944E1,3.3020245E1,1.2036733E1,3.021704E1,1.4141222E1,1.0581279E1,1.04304545E-1,-2.664802E-2,1.401107E1,1.3716445E1,1.7867956E1,-1.3946692E-2,3.3155344E-3,-1.7439166E-2,3.2027027E1,-1.7924339E-2,1.3967907E1,3.3691578E1,8.912009E-2,9.923869E-3,-5.641573E-3,5.9694764E-3,-5.575919E-3,1.5848291E-3,-2.6094741E-3],"split_indices":[1,0,2,0,1,2,0,0,1,1,2,0,0,0,0,0,1,0,0,0,0,0,0,0,0],"split_type":[0,0,0,0,0,0,0,0,0,0,0,0,0,0,0,0,0,0,0,0,0,0,0,0,0],"sum_hessian":[2.56E2,2.16E2,4E1,1.7E2,4.6E1,1.4E1,2.6E1,1.34E2,3.6E1,3.3E1,1.3E1,1.3E1,1E0,2.4E1,1.2E1,2.8E1,5E0,2E0,1.1E1,9E0,3E0,3E0,2E0,1E0,1E0],"tree_param":{"num_deleted":"0","num_feature":"3","num_nodes":"25","size_leaf_vector":"0"}},{"base_weights":[-4.6958786E-1,-3.2134002E-1,-1.1228006E0,-2.2426248E-1,-6.123678E-1,-2.276776E-1,-1.4708835E0,-1.882491E-1,-3.1196144E-1,-2.6537564E-1,-1.1293045E0,-1.3334848E-1,-3.6413994E-1,-8.685197E-2,-1.2208003E0],"categories":[],"categories_nodes":[],"categories_segments":[],"categories_sizes":[],"default_left":[1,1,1,1,1,0,0,0,1,0,1,0,0,0,0],"id":34,"left_children":[1,3,5,7,9,-1,-1,-1,11,-1,13,-1,-1,-1,-1],"loss_changes":[2.319421E1,5.4428997E0,1.23221245E1,2.0090294E-1,7.523613E0,0E0,0E0,0E0,9.824467E-2,0E0,1.1755466E0,0E0,0E0,0E0,0E0],"parents":[2147483647,0,0,1,1,2,2,3,3,4,4,8,8,10,10],"right_children":[2,4,6,8,10,-1,-1,-1,12,-1,14,-1,-1,-1,-1],"split_conditions":[1.4740944E1,3.3020245E1,1.2036733E1,3.021704E1,1.4141222E1,-2.276776E-2,-1.4708835E-1,-1.882491E-2,1.2904892E1,-2.6537566E-2,1.7867956E1,-1.3334848E-2,-3.6413994E-2,-8.685197E-3,-1.2208003E-1],"split_indices":[1,0,2,0,1,0,0,0,1,0,2,0,0,0,0],"split_type":[0,0,0,0,0,0,0,0,0,0,0,0,0,0,0],"sum_hessian":[2.56E2,2.16E2,4E1,1.7E2,4.6E1,1.4E1,2.6E1,1.34E2,3.6E1,3.3E1,1.3E1,1.3E1,2.3E1,2E0,1.1E1],"tree_param":{"num_deleted":"0","num_feature":"3","num_nodes":"15","size_leaf_vector":"0"}},{"base_weights":[1.974247E-1,4.811377E-2,2.638105E-1,-2.8033774E-2,1.06628135E-1,1.4569782E-1,3.309352E-1,-3.9413966E-2,1.2427674E-2,3.3356886E-2,1.9385856E-1,8.90847E-2,2.336918E-1,1.0733292E-1,3.825605E-1,-4.7641445E-2,-1.5700748E-2,8.204279E-4,1.2937082E-2,-1.4277047E-2,4.6168424E-2,-5.6360854E-4,2.2466014E-1,6.296573E-3,8.989698E-2,1.961899E-2,1.2063758E-1,-1.7259363E-2,2.6491506E-3,3.4060308E-3,5.6407478E-2,-2.362976E-3,1.9747296E-3,9.072418E-2,6.412646E-3],"categories":[],"categories_nodes":[],"categories_segments":[],"categories_sizes":[],"default_left":[1,1,1,1,1,1,1,1,1,1,1,1,0,1,0,0,0,0,0,1,1,1,0,0,1,0,0,0,0,0,0,0,0,0,0],"id":35,"left_children":[1,3,5,7,9,11,13,15,17,19,21,23,-1,25,-1,-1,-1,-1,-1,27,29,31,-1,-1,33,-1,-1,-1,-1,-1,-1,-1,-1,-1,-1],"loss_changes":[2.520689E0,4.1038805E-1,1.1359024E0,2.278325E-2,2.8716296E-1,2.529497E-1,1.0220366E0,2.3145303E-3,1.887558E-5,2.5373667E-2,1.3279378E-1,3.4618378E-4,0E0,1.9586116E-2,0E0,0E0,0E0,0E0,0E0,8.8459905E-4,1.1556312E-2,6.953709E-5,0E0,0E0,2.834797E-4,0E0,0E0,0E0,0E0,0E0,0E0,0E0,0E0,0E0,0E0],"parents":[2147483647,0,0,1,1,2,2,3,3,4,4,5,5,6,6,7,7,8,8,9,9,10,10,11,11,13,13,19,19,20,20,21,21,24,24],"right_children":[2,4,6,8,10,12,14,16,18,20,22,24,-1,26,-1,-1,-1,-1,-1,28,30,32,-1,-1,34,-1,-1,-1,-1,-1,-1,-1,-1,-1,-1],"split_conditions":[2.7768417E1,1.3745114E1,1.2926439E1,2.6355602E1,1.4286024E1,3.3018044E1,1.0039522E1,2.421099E1,2.6662567E1,2.4230373E1,2.3299389E1,2.8188812E1,2.336918E-2,2.9250164E1,3.825605E-2,-4.764145E-3,-1.5700748E-3,8.204279E-5,1.2937082E-3,1.4237974E1,1.2324606E1,2.2569939E1,2.2466015E-2,6.2965736E-4,1.344E2,1.961899E-3,1.2063758E-2,-1.7259363E-3,2.6491506E-4,3.406031E-4,5.640748E-3,-2.3629761E-4,1.9747297E-4,9.072418E-3,6.412646E-4],"split_indices":[0,2,1,0,1,0,2,0,0,0,0,0,0,0,0,0,0,0,0,1,1,0,0,0,2,0,0,0,0,0,0,0,0,0,0],"split_type":[0,0,0,0,0,0,0,0,0,0,0,0,0,0,0,0,0,0,0,0,0,0,0,0,0,0,0,0,0,0,0,0,0,0,0],"sum_hessian":[2.56E2,8.2E1,1.74E2,3.7E1,4.5E1,7E1,1.04E2,2.9E1,8E0,2.9E1,1.6E1,5E1,2E1,2.3E1,8.1E1,1.7E1,1.2E1,1E0,7E0,6E0,2.3E1,3E0,1.3E1,1E0,4.9E1,5E0,1.8E1,5E0,1E0,6E0,1.7E1,2E0,1E0,4.8E1,1E0],"tree_param":{"num_deleted":"0","num_feature":"3","num_nodes":"35","size_leaf_vector":"0"}},{"base_weights":[2.1106922E1,1.4467745E1,2.3396784E1,1.6432188E1,2.6340092E1,1.9898083E0,1.6676262E1,7.301404E0,2.730539E1],"categories":[],"categories_nodes":[],"categories_segments":[],"categories_sizes":[],"default_left":[1,0,1,1,1,0,0,0,0],"id":36,"left_children":[1,-1,3,5,7,-1,-1,-1,-1],"loss_changes":[1.9369766E3,0E0,1.1760312E3,4.9789062E1,1.00066406E3,0E0,0E0,0E0,0E0],"parents":[2147483647,0,0,2,2,3,3,4,4],"right_children":[2,-1,4,6,8,-1,-1,-1,-1],"split_conditions":[1.127008E1,1.4467745E0,1.3218732E1,2.3922874E1,2.3652817E1,1.9898084E-1,1.6676263E0,7.301404E-1,2.730539E0],"split_indices":[2,0,1,0,0,0,0,0,0],"split_type":[0,0,0,0,0,0,0,0,0],"sum_hessian":[2.56E2,7.7E1,1.79E2,6.5E1,1.14E2,2E0,6.3E1,8E0,1.06E2],"tree_param":{"num_deleted":"0","num_feature":"3","num_nodes":"9","size_leaf_vector":"0"}},{"base_weights":[9.067049E-1,1.4935216E-1,1.3610209E0,3.1859074E-2,4.6504906E-1,2.3368803E-1,1.4740748E0,-7.979185E-2,1.9854252E-1,1.958532E-2,5.80909E-1,-1.0588077E-3,2.4514574E-1,1.0086333E0,1.7166951E0,-1.2249444E-1,9.785996E-3,7.699934E-2,2.572684E-1,-8.759937E-3,2.6946275E-2,3.914483E-1,1.3844049E0,4.4577893E-2,1.7328078E0,-1.3876781E-1,-4.8906673E-2,-3.395894E-2,6.677499E-2,3.2637161E-3,8.407733E-2,3.1917885E-2,2.840346E-1,1.1266024E-1,4.402169E-1,3.1511313E-1,1.4885297E0],"categories":[],"categories_nodes":[],"categories_segments":[],"categories_sizes":[],"default_left":[1,1,1,1,1,1,1,1,1,1,0,0,0,1,1,1,1,1,1,0,0,1,1,0,0,0,0,0,0,0,0,0,0,0,0,0,0],"id":37,"left_children":[1,3,5,7,9,11,13,15,17,19,-1,-1,-1,21,23,25,27,29,31,-1,-1,33,35,-1,-1,-1,-1,-1,-1,-1,-1,-1,-1,-1,-1,-1,-1],"loss_changes":[8.893524E1,3.80683E0,1.8697235E1,1.6413281E0,1.3787422E0,6.0868263E-2,6.135071E0,2.1398908E-1,1.303693E-1,3.940919E-3,0E0,0E0,0E0,1.1808762E1,1.9050903E0,3.326118E-3,7.116744E-2,8.803181E-3,7.213056E-2,0E0,0E0,1.4941359E-1,1.3998032E0,0E0,0E0,0E0,0E0,0E0,0E0,0E0,0E0,0E0,0E0,0E0,0E0,0E0,0E0],"parents":[2147483647,0,0,1,1,2,2,3,3,4,4,5,5,6,6,7,7,8,8,9,9,13,13,14,14,15,15,16,16,17,17,18,18,21,21,22,22],"right_children":[2,4,6,8,10,12,14,16,18,20,-1,-1,-1,22,24,26,28,30,32,-1,-1,34,36,-1,-1,-1,-1,-1,-1,-1,-1,-1,-1,-1,-1,-1,-1],"split_conditions":[1.3218732E1,3.2842712E1,2.3825268E1,1.2576536E1,1.1479122E1,1.3640545E1,1.4152657E1,1.1783976E1,1.3674635E1,1.0806364E1,5.8090903E-2,-1.05880776E-4,2.4514575E-2,2.8990498E1,1.6579921E0,2.9855955E1,2.9400002E1,2.6082016E1,2.770803E1,-8.7599375E-4,2.6946275E-3,1.4418486E1,6.191644E0,4.4577895E-3,1.7328078E-1,-1.3876781E-2,-4.8906673E-3,-3.3958943E-3,6.6774986E-3,3.263716E-4,8.407733E-3,3.1917884E-3,2.8403461E-2,1.1266024E-2,4.4021692E-2,3.1511314E-2,1.4885297E-1],"split_indices":[1,0,0,1,1,1,1,1,2,1,0,0,0,0,2,0,0,0,0,0,0,2,2,0,0,0,0,0,0,0,0,0,0,0,0,0,0],"split_type":[0,0,0,0,0,0,0,0,0,0,0,0,0,0,0,0,0,0,0,0,0,0,0,0,0,0,0,0,0,0,0,0,0,0,0,0,0],"sum_hessian":[2.56E2,9.9E1,1.57E2,7.7E1,2.2E1,1.6E1,1.41E2,4.8E1,2.9E1,6E0,1.6E1,1E0,1.5E1,5.9E1,8.2E1,3.1E1,1.7E1,1.4E1,1.5E1,1E0,5E0,2.7E1,3.2E1,1E0,8.1E1,2.1E1,1E1,1.1E1,6E0,2E0,1.2E1,3E0,1.2E1,7E0,2E1,5E0,2.7E1],"tree_param":{"num_deleted":"0","num_feature":"3","num_nodes":"37","size_leaf_vector":"0"}},{"base_weights":[6.9110928E0,5.4262967E0,7.598078E0],"categories":[],"categories_nodes":[],"categories_segments":[],"categories_sizes":[],"default_left":[1,0,0],"id":38,"left_children":[1,-1,-1],"loss_changes":[1.7986328E1,0E0,0E0],"parents":[2147483647,0,0],"right_children":[2,-1,-1],"split_conditions":[1.3130555E1,5.4262966E-1,7.5980777E-1],"split_indices":[1,0,0],"split_type":[0,0,0],"sum_hessian":[2.56E2,9.8E1,1.58E2],"tree_param":{"num_deleted":"0","num_feature":"3","num_nodes":"3","size_leaf_vector":"0"}},{"base_weights":[-2.1585168E-3,-1.3076204E-1,6.1827564E-1,-2.1391927E-1,1.6570665E-1,-1.11976355E-1,9.58422E-1,-2.4098279E-1,-9.3013555E-2,-1.4127095E-1,7.4241537E-1,-1.2994795E-1,3.2684855E-2,-1.604621E-1,5.0449494E-2,-1.645025E-1,7.6589235E-3,-8.845776E-3,8.336936E-1,-1.4185342E-1,-2.1974156E-2,9.330291E-2,-5.454495E-2,5.7715256E-2,-5.4373335E-2,1.5623393E-2,-2.572444E-2,3.2920435E-3,-2.7587853E-2],"categories":[],"categories_nodes":[],"categories_segments":[],"categories_sizes":[],"default_left":[1,1,1,1,1,1,0,0,1,1,1,1,0,0,1,0,1,1,0,0,1,0,0,0,0,0,0,0,0],"id":39,"left_children":[1,3,5,7,9,11,-1,-1,13,15,17,19,-1,-1,21,-1,23,25,-1,-1,27,-1,-1,-1,-1,-1,-1,-1,-1],"loss_changes":[2.1397602E1,5.6885858E0,1.2086664E1,4.4050884E-1,9.848417E0,7.780093E-2,0E0,0E0,4.5581257E-1,1.4271581E-1,1.3507128E0,5.6355596E-3,0E0,0E0,1.1197358E-1,0E0,5.3278007E-2,5.7536913E-3,0E0,0E0,1.8323646E-3,0E0,0E0,0E0,0E0,0E0,0E0,0E0,0E0],"parents":[2147483647,0,0,1,1,2,2,3,3,4,4,5,5,8,8,9,9,10,10,11,11,14,14,16,16,17,17,20,20],"right_children":[2,4,6,8,10,12,-1,-1,14,16,18,20,-1,-1,22,-1,24,26,-1,-1,28,-1,-1,-1,-1,-1,-1,-1,-1],"split_conditions":[1.4740944E1,3.3020245E1,1.2036733E1,3.021704E1,1.4141222E1,1.0581279E1,9.5842205E-2,-2.4098279E-2,1.401107E1,1.3716445E1,1.7867956E1,3.2045525E1,3.2684857E-3,-1.604621E-2,3.2027027E1,-1.645025E-2,1.3967907E1,3.3691578E1,8.336937E-2,-1.4185342E-2,3.3172554E1,9.330291E-3,-5.454495E-3,5.7715257E-3,-5.4373336E-3,1.5623393E-3,-2.572444E-3,3.2920434E-4,-2.7587854E-3],"split_indices":[1,0,2,0,1,2,0,0,1,1,2,0,0,0,0,0,1,0,0,0,0,0,0,0,0,0,0,0,0],"split_type":[0,0,0,0,0,0,0,0,0,0,0,0,0,0,0,0,0,0,0,0,0,0,0,0,0,0,0,0,0],"sum_hessian":[2.56E2,2.16E2,4E1,1.7E2,4.6E1,1.4E1,2.6E1,1.34E2,3.6E1,3.3E1,1.3E1,1.3E1,1E0,2.4E1,1.2E1,2.8E1,5E0,2E0,1.1E1,1E1,3E0,9E0,3E0,3E0,2E0,1E0,1E0,1E0,2E0],"tree_param":{"num_deleted":"0","num_feature":"3","num_nodes":"29","size_leaf_vector":"0"}},{"base_weights":[-4.3176085E-1,-2.1141757E-1,-7.9321724E-1,-1.651218E-1,-2.6117414E-1,-2.01649E-1,-9.9254227E-1,-1.3423598E-1,-2.974935E-1,-6.028443E-1,-1.3303405E0,-1.452863E-1,-3.419135E-1,-2.1440572E-1,-1.1420246E0,-9.2334084E-2,-1.3515491E0,-1.1131682E-1,-2.9299194E-1],"categories":[],"categories_nodes":[],"categories_segments":[],"categories_sizes":[],"default_left":[1,1,1,0,1,0,1,0,1,1,1,0,0,1,0,0,0,0,0],"id":40,"left_children":[1,3,5,-1,7,-1,9,-1,11,13,15,-1,-1,17,-1,-1,-1,-1,-1],"loss_changes":[1.9856525E1,1.3323402E-1,1.023296E1,0E0,9.068012E-2,0E0,4.503029E0,0E0,4.4748783E-2,7.7444935E0,1.1307526E-1,0E0,0E0,7.050574E-2,0E0,0E0,0E0,0E0,0E0],"parents":[2147483647,0,0,1,1,2,2,4,4,6,6,8,8,9,9,10,10,13,13],"right_children":[2,4,6,-1,8,-1,10,-1,12,14,16,-1,-1,18,-1,-1,-1,-1,-1],"split_conditions":[1.4196613E1,1.3218732E1,1.1469016E1,-1.651218E-2,1.3367884E1,-2.01649E-2,1.4740944E1,-1.3423598E-2,2.7539612E1,3.3305832E1,1.2036733E1,-1.4528631E-2,-3.419135E-2,2.9249447E1,-1.1420246E-1,-9.233409E-3,-1.3515492E-1,-1.1131682E-2,-2.9299194E-2],"split_indices":[1,1,2,0,2,0,1,0,0,0,2,0,0,0,0,0,0,0,0],"split_type":[0,0,0,0,0,0,0,0,0,0,0,0,0,0,0,0,0,0,0],"sum_hessian":[2.56E2,1.65E2,9.1E1,9.9E1,6.6E1,2.6E1,6.5E1,2.1E1,4.5E1,3.8E1,2.7E1,1.6E1,2.9E1,2.7E1,1.1E1,1E0,2.6E1,1.8E1,9E0],"tree_param":{"num_deleted":"0","num_feature":"3","num_nodes":"19","size_leaf_vector":"0"}},{"base_weights":[1.8017401E-1,1.00812286E-1,2.8939217E-1,1.1993762E-2,1.5567745E-1,1.2917927E-1,3.2868907E-1,-3.5392966E-2,5.498332E-2,8.947644E-2,2.5186384E-1,4.161296E-2,1.4420553E-1,1.6486445E-1,3.5916555E-1,-4.412729E-2,-1.358801E-2,1.8007275E-2,6.98275E-2,2.7294865E-2,1.2635751E-1,1.3516189E-3,2.8193855E-1,1.5767252E-3,1.7153578E-1,-4.516015E-2,-3.0305514E-3,-1.4656751E-2,8.0878934E-4,-1.6361129E-2,3.671267E-2,4.7121897E-2,1.529245E-1,-2.3042446E-3,3.991799E-3],"categories":[],"categories_nodes":[],"categories_segments":[],"categories_sizes":[],"default_left":[1,1,1,1,1,1,1,1,1,1,1,0,0,1,0,1,1,0,0,1,1,1,0,0,0,0,0,0,0,0,0,0,0,0,0],"id":41,"left_children":[1,3,5,7,9,11,13,15,17,19,21,-1,-1,23,-1,25,27,-1,-1,29,31,33,-1,-1,-1,-1,-1,-1,-1,-1,-1,-1,-1,-1,-1],"loss_changes":[2.0949411E0,7.734978E-1,4.1720295E-1,1.5038809E-1,4.9442244E-1,4.564941E-3,5.1585197E-2,3.2394528E-3,1.32797435E-2,1.351983E-1,2.7681017E-1,0E0,0E0,2.4559915E-2,0E0,1.5069172E-4,3.647455E-4,0E0,0E0,1.7219152E-2,4.28313E-2,1.525939E-4,0E0,0E0,0E0,0E0,0E0,0E0,0E0,0E0,0E0,0E0,0E0,0E0,0E0],"parents":[2147483647,0,0,1,1,2,2,3,3,4,4,5,5,6,6,7,7,8,8,9,9,10,10,13,13,15,15,16,16,19,19,20,20,21,21],"right_children":[2,4,6,8,10,12,14,16,18,20,22,-1,-1,24,-1,26,28,-1,-1,30,32,34,-1,-1,-1,-1,-1,-1,-1,-1,-1,-1,-1,-1,-1],"split_conditions":[3.021704E1,1.3482174E1,1.1098852E1,2.6662567E1,1.4139533E1,3.187973E1,1.2294151E1,2.421099E1,2.9053308E1,2.7995647E1,2.3652817E1,4.161296E-3,1.4420553E-2,3.1399223E1,3.5916556E-2,1.2831552E1,2.6355602E1,1.8007274E-3,6.98275E-3,2.4230373E1,1.2200001E1,2.2569939E1,2.8193856E-2,1.5767252E-4,1.7153578E-2,-4.516015E-3,-3.0305513E-4,-1.4656752E-3,8.0878934E-5,-1.6361129E-3,3.6712668E-3,4.71219E-3,1.529245E-2,-2.3042446E-4,3.991799E-4],"split_indices":[0,2,2,0,1,0,1,0,0,0,0,0,0,0,0,2,0,0,0,0,1,0,0,0,0,0,0,0,0,0,0,0,0,0,0],"split_type":[0,0,0,0,0,0,0,0,0,0,0,0,0,0,0,0,0,0,0,0,0,0,0,0,0,0,0,0,0,0,0,0,0,0,0],"sum_hessian":[2.56E2,1.55E2,1.01E2,6.2E1,9.3E1,2.5E1,7.6E1,3E1,3.2E1,6.2E1,3.1E1,7E0,1.8E1,1.8E1,5.8E1,1.7E1,1.3E1,1.3E1,1.9E1,2.7E1,3.5E1,4E0,2.7E1,1E0,1.7E1,1.6E1,1E0,1.2E1,1E0,4E0,2.3E1,1.3E1,2.2E1,2E0,2E0],"tree_param":{"num_deleted":"0","num_feature":"3","num_nodes":"35","size_leaf_vector":"0"}},{"base_weights":[1.9152546E1,1.5446025E1,2.3646935E1,9.464115E0,1.6828295E1,1.0846396E1,1.891975E1],"categories":[],"categories_nodes":[],"categories_segments":[],"categories_sizes":[],"default_left":[1,1,0,0,1,0,0],"id":42,"left_children":[1,3,-1,-1,5,-1,-1],"loss_changes":[2.1566875E3,3.6857812E2,0E0,0E0,2.9853516E2,0E0,0E0],"parents":[2147483647,0,0,1,1,4,4],"right_children":[2,4,-1,-1,6,-1,-1],"split_conditions":[3.021704E1,1.2576536E1,2.3646934E0,9.4641155E-1,1.1980462E1,1.0846397E0,1.891975E0],"split_indices":[0,1,0,0,2,0,0],"split_type":[0,0,0,0,0,0,0],"sum_hessian":[2.56E2,1.55E2,1.01E2,3.8E1,1.17E2,4E1,7.7E1],"tree_param":{"num_deleted":"0","num_feature":"3","num_nodes":"7","size_leaf_vector":"0"}},{"base_weights":[8.280927E-1,1.2315741E-1,1.231166E0,-8.0994196E-2,2.5193062E-1,6.7220795E-1,1.486064E0,-1.1330827E-1,4.8300903E-2,1.0174184E-1,4.612236E-1,2.5666434E-1,1.025747E0,8.12863E-1,1.6088845E0,-1.3249706E-1,-4.8710853E-2,4.94963E-3,7.15181E-2,-1.3431584E-2,1.5629311E-1,1.819826E-1,6.01555E-1,7.790752E-2,3.0533794E-1,2.4155734E-1,1.2686011E0,2.224144E-2,8.3625704E-1,-1.3788965E-1,-1.748642E-2,-5.364122E-2,-2.2747456E-3,-8.63563E-3,1.1499316E-2,-4.25526E-2,2.1914624E-2,-9.052945E-3,1.6361794E-1,2.054001E-1,1.442144E-3,-1.0437815E-3,8.3574E-2,1.0511672E-1,3.8550398E-1,1.9557571E-1,9.239382E-1],"categories":[],"categories_nodes":[],"categories_segments":[],"categories_sizes":[],"default_left":[1,1,1,1,1,1,1,1,1,1,1,1,1,1,0,1,1,1,0,1,1,1,0,1,1,0,0,0,1,0,0,0,0,0,0,0,0,0,0,0,0,0,0,0,0,0,0],"id":43,"left_children":[1,3,5,7,9,11,13,15,17,19,21,23,25,27,-1,29,31,33,-1,35,37,39,-1,41,43,-1,-1,-1,45,-1,-1,-1,-1,-1,-1,-1,-1,-1,-1,-1,-1,-1,-1,-1,-1,-1,-1],"loss_changes":[7.354129E1,2.8061237E0,1.7617401E1,2.171242E-1,1.7294602E0,7.670294E0,1.1081543E0,6.8944097E-3,1.099111E-2,2.957172E-1,3.1952572E-1,1.7849088E-1,4.2501183E0,4.2477798E-1,0E0,9.5397234E-4,3.393937E-3,1.5834244E-3,0E0,2.6273502E-2,4.655868E-2,7.027978E-2,0E0,7.7064782E-3,1.8909001E-1,0E0,0E0,0E0,4.8287964E-1,0E0,0E0,0E0,0E0,0E0,0E0,0E0,0E0,0E0,0E0,0E0,0E0,0E0,0E0,0E0,0E0,0E0,0E0],"parents":[2147483647,0,0,1,1,2,2,3,3,4,4,5,5,6,6,7,7,8,8,9,9,10,10,11,11,12,12,13,13,15,15,16,16,17,17,19,19,20,20,21,21,23,23,24,24,28,28],"right_children":[2,4,6,8,10,12,14,16,18,20,22,24,26,28,-1,30,32,34,-1,36,38,40,-1,42,44,-1,-1,-1,46,-1,-1,-1,-1,-1,-1,-1,-1,-1,-1,-1,-1,-1,-1,-1,-1,-1,-1],"split_conditions":[1.3031338E1,1.1783976E1,2.7768417E1,3.3047028E1,3.1399223E1,1.4295111E1,1.0619905E1,3.0692375E1,3.4599335E1,1.2576536E1,1.2121794E1,1.3598394E1,2.3825268E1,1.3531021E1,1.6088845E-1,1.1640665E1,3.1E1,1.0806364E1,7.15181E-3,2.8090145E1,2.5845762E1,1.1851515E1,6.01555E-2,2.3599068E1,1.5012496E1,2.4155734E-2,1.2686011E-1,2.224144E-3,2.9250164E1,-1.37889655E-2,-1.748642E-3,-5.364122E-3,-2.2747456E-4,-8.63563E-4,1.1499317E-3,-4.2552603E-3,2.1914623E-3,-9.0529455E-4,1.6361794E-2,2.054001E-2,1.4421441E-4,-1.0437815E-4,8.3574E-3,1.0511672E-2,3.85504E-2,1.9557571E-2,9.239382E-2],"split_indices":[1,1,0,0,0,1,2,2,0,1,1,1,0,1,0,1,0,1,0,0,0,1,0,0,2,0,0,0,0,0,0,0,0,0,0,0,0,0,0,0,0,0,0,0,0,0,0],"split_type":[0,0,0,0,0,0,0,0,0,0,0,0,0,0,0,0,0,0,0,0,0,0,0,0,0,0,0,0,0,0,0,0,0,0,0,0,0,0,0,0,0,0,0,0,0,0,0],"sum_hessian":[2.56E2,9.6E1,1.6E2,3.8E1,5.8E1,5.7E1,1.03E2,3.1E1,7E0,3.9E1,1.9E1,3.1E1,2.6E1,2.3E1,8E1,1.9E1,1.2E1,5E0,2E0,1.4E1,2.5E1,1.1E1,8E0,1E1,2.1E1,9E0,1.7E1,1E0,2.2E1,1.7E1,2E0,1E1,2E0,1E0,4E0,7E0,7E0,1E0,2.4E1,9E0,2E0,1E0,9E0,1E1,1.1E1,5E0,1.7E1],"tree_param":{"num_deleted":"0","num_feature":"3","num_nodes":"47","size_leaf_vector":"0"}},{"base_weights":[6.250038E0,3.8234124E0,6.5104475E0],"categories":[],"categories_nodes":[],"categories_segments":[],"categories_sizes":[],"default_left":[1,0,0],"id":44,"left_children":[1,-1,-1],"loss_changes":[1.5072266E1,0E0,0E0],"parents":[2147483647,0,0],"right_children":[2,-1,-1],"split_conditions":[1.1517748E1,3.8234124E-1,6.510448E-1],"split_indices":[1,0,0],"split_type":[0,0,0],"sum_hessian":[2.56E2,3.4E1,2.22E2],"tree_param":{"num_deleted":"0","num_feature":"3","num_nodes":"3","size_leaf_vector":"0"}},{"base_weights":[6.5265375E-4,-1.951226E-1,3.456694E-1,-2.246711E-1,-1.3312185E-1,-1.3565826E-1,5.628551E-1,-1.7629999E-1,-5.2519448E-2,-1.6406888E-1,5.565414E-2,1.5317112E-1,7.941581E-1,-1.81206E-1,-1.8792782E-2,-1.2889765E-1,8.479471E-3,-1.6664733E-1,-1.19224E-2,-4.738874E-2,1.0407003E-1,-1.6367185E-1,5.7691544E-1,-1.3332696E-1,-9.462266E-3,-3.4720086E-2,5.4179553E-2,-1.6933367E-1,-1.2194202E-2,-1.3149455E-2,6.2458277E-1],"categories":[],"categories_nodes":[],"categories_segments":[],"categories_sizes":[],"default_left":[1,1,1,0,1,1,1,1,1,1,1,1,0,0,0,1,1,1,0,0,0,0,1,0,0,0,0,0,0,0,0],"id":45,"left_children":[1,3,5,-1,7,9,11,13,15,17,19,21,-1,-1,-1,23,25,27,-1,-1,-1,-1,29,-1,-1,-1,-1,-1,-1,-1,-1],"loss_changes":[1.8108E1,1.3250828E-1,1.0606757E1,0E0,1.877923E-1,2.4570543E-1,5.7126427E0,1.26719475E-2,1.6057427E-1,5.5783987E-4,7.495596E-2,4.8736067E0,0E0,0E0,0E0,3.3143163E-4,5.8848877E-2,3.9559603E-4,0E0,0E0,0E0,0E0,4.7288418E-1,0E0,0E0,0E0,0E0,0E0,0E0,0E0,0E0],"parents":[2147483647,0,0,1,1,2,2,4,4,5,5,6,6,7,7,8,8,9,9,10,10,11,11,15,15,16,16,17,17,22,22],"right_children":[2,4,6,-1,8,10,12,14,16,18,20,22,-1,-1,-1,24,26,28,-1,-1,-1,-1,30,-1,-1,-1,-1,-1,-1,-1,-1],"split_conditions":[1.4196613E1,1.33598E1,1.2679089E1,-2.246711E-2,3.0011435E1,1.1469016E1,2.9087563E1,1.416349E1,1.5565954E1,3.446355E1,2.6013653E1,1.477503E1,7.941581E-2,-1.81206E-2,-1.8792782E-3,1.3126652E1,1.3566761E1,1.0641779E1,-1.19224E-3,-4.7388743E-3,1.0407004E-2,-1.6367186E-2,1.799862E1,-1.3332697E-2,-9.4622665E-4,-3.4720085E-3,5.4179556E-3,-1.6933367E-2,-1.2194202E-3,-1.3149455E-3,6.2458277E-2],"split_indices":[1,1,2,0,0,2,0,1,2,0,0,1,0,0,0,2,1,2,0,0,0,0,2,0,0,0,0,0,0,0,0],"split_type":[0,0,0,0,0,0,0,0,0,0,0,0,0,0,0,0,0,0,0,0,0,0,0,0,0,0,0,0,0,0,0],"sum_hessian":[2.56E2,1.65E2,9.1E1,1.01E2,6.4E1,2.9E1,6.2E1,3.7E1,2.7E1,2.6E1,3E0,2.6E1,3.6E1,3.5E1,2E0,9E0,1.8E1,2.5E1,1E0,1E0,2E0,1.7E1,9E0,8E0,1E0,1E1,8E0,2.4E1,1E0,1E0,8E0],"tree_param":{"num_deleted":"0","num_feature":"3","num_nodes":"31","size_leaf_vector":"0"}},{"base_weights":[-3.9776522E-1,-1.9305646E-1,-7.337837E-1,-1.4956012E-1,-2.4027243E-1,-3.266488E-1,-1.0085396E0,-1.5801382E-1,-3.0401787E-1,-1.4509144E-1,-4.583404E-1,-2.3953284E-1,-1.0904307E0,-1.0695455E-1,-3.397136E-1,-1.5079951E-1,2.1288816E-3,-1.7682795E-1,-5.7436854E-1,-9.535301E-3,-2.5383848E-1,-1.4703267E-2,-2.6743743E-1],"categories":[],"categories_nodes":[],"categories_segments":[],"categories_sizes":[],"default_left":[1,1,1,0,1,1,1,0,1,1,1,1,0,0,0,0,0,0,0,0,1,0,0],"id":46,"left_children":[1,3,5,-1,7,9,11,-1,13,15,17,19,-1,-1,-1,-1,-1,-1,-1,-1,21,-1,-1],"loss_changes":[1.716853E1,1.3398647E-1,8.863846E0,0E0,8.729887E-2,7.466545E-1,1.8871536E0,0E0,1.978898E-2,2.6350617E-2,2.0396662E-1,2.8291583E-2,0E0,0E0,0E0,0E0,0E0,0E0,0E0,0E0,1.5398622E-2,0E0,0E0],"parents":[2147483647,0,0,1,1,2,2,4,4,5,5,6,6,8,8,9,9,10,10,11,11,20,20],"right_children":[2,4,6,-1,8,10,12,-1,14,16,18,20,-1,-1,-1,-1,-1,-1,-1,-1,22,-1,-1],"split_conditions":[1.4196613E1,1.3218732E1,1.6800083E1,-1.4956012E-2,3.0011435E1,2.9364056E1,2.4878712E1,-1.5801383E-2,1.3126652E1,1.600206E1,9.879559E0,1.4237974E1,-1.0904308E-1,-1.0695456E-2,-3.397136E-2,-1.5079952E-2,2.1288816E-4,-1.7682796E-2,-5.7436854E-2,-9.535301E-4,2.0997005E1,-1.4703268E-3,-2.6743744E-2],"split_indices":[1,1,2,0,0,0,0,0,2,2,2,1,0,0,0,0,0,0,0,0,2,0,0],"split_type":[0,0,0,0,0,0,0,0,0,0,0,0,0,0,0,0,0,0,0,0,0,0,0],"sum_hessian":[2.56E2,1.65E2,9.1E1,9.9E1,6.6E1,4.2E1,4.9E1,3.8E1,2.8E1,2.3E1,1.9E1,7E0,4.2E1,8E0,2E1,2.2E1,1E0,1E1,9E0,1E0,6E0,1E0,5E0],"tree_param":{"num_deleted":"0","num_feature":"3","num_nodes":"23","size_leaf_vector":"0"}},{"base_weights":[1.6503625E-1,4.0042292E-2,2.2061828E-1,-2.4127463E-2,8.941214E-2,9.873381E-2,2.6416117E-1,-3.4652133E-2,9.383012E-3,2.7062973E-2,1.6400217E-1,4.8862144E-2,1.5065357E-1,1.408152E-1,3.267066E-1,-4.0978964E-2,-1.3806598E-2,-1.6405936E-3,1.08740255E-2,-1.5412926E-2,3.904552E-2,-5.2637747E-4,1.900835E-1,7.674094E-2,2.0686562E-1,3.2882783E-1,2.2266299E-2,-4.1882765E-2,-2.9875452E-3,7.973114E-4,1.1276837E-2,-1.8437948E-2,2.5549084E-3,1.4079051E-3,4.847465E-2,-2.2469724E-3,1.8900621E-3,3.405062E-2,9.125731E-2],"categories":[],"categories_nodes":[],"categories_segments":[],"categories_sizes":[],"default_left":[1,1,1,1,1,1,1,1,1,1,1,0,0,1,1,1,0,0,1,1,1,1,0,1,0,0,0,0,0,0,0,0,0,0,0,0,0,0,0],"id":47,"left_children":[1,3,5,7,9,11,13,15,17,19,21,-1,-1,23,25,27,-1,-1,29,31,33,35,-1,37,-1,-1,-1,-1,-1,-1,-1,-1,-1,-1,-1,-1,-1,-1,-1],"loss_changes":[1.7671304E0,2.9198194E-1,7.978325E-1,1.7148165E-2,2.1056157E-1,1.032002E-1,7.173729E-1,1.0690987E-3,3.5519188E-4,2.1476854E-2,9.521097E-2,0E0,0E0,1.3273859E-1,8.06427E-3,3.4727156E-5,0E0,0E0,2.6480993E-6,9.3963905E-4,9.895768E-3,6.329508E-5,0E0,4.1683465E-3,0E0,0E0,0E0,0E0,0E0,0E0,0E0,0E0,0E0,0E0,0E0,0E0,0E0,0E0,0E0],"parents":[2147483647,0,0,1,1,2,2,3,3,4,4,5,5,6,6,7,7,8,8,9,9,10,10,13,13,14,14,15,15,18,18,19,19,20,20,21,21,23,23],"right_children":[2,4,6,8,10,12,14,16,18,20,22,-1,-1,24,26,28,-1,-1,30,32,34,36,-1,38,-1,-1,-1,-1,-1,-1,-1,-1,-1,-1,-1,-1,-1,-1,-1],"split_conditions":[2.7768417E1,1.3745114E1,1.2355316E1,2.609483E1,1.4286024E1,3.2193092E1,1.2969487E1,2.421099E1,2.6355602E1,2.4230373E1,2.3299389E1,4.8862146E-3,1.5065357E-2,3.26676E1,1.344E2,1.2831552E1,-1.3806599E-3,-1.6405937E-4,2.6662567E1,1.4237974E1,1.2324606E1,2.2569939E1,1.9008351E-2,2.9652922E1,2.0686563E-2,3.2882784E-2,2.22663E-3,-4.1882764E-3,-2.9875452E-4,7.9731144E-5,1.1276838E-3,-1.8437948E-3,2.5549086E-4,1.4079052E-4,4.847465E-3,-2.2469724E-4,1.8900621E-4,3.4050622E-3,9.125731E-3],"split_indices":[0,2,2,0,1,0,1,0,0,0,0,0,0,0,2,2,0,0,0,1,1,0,0,0,0,0,0,0,0,0,0,0,0,0,0,0,0,0,0],"split_type":[0,0,0,0,0,0,0,0,0,0,0,0,0,0,0,0,0,0,0,0,0,0,0,0,0,0,0,0,0,0,0,0,0,0,0,0,0,0,0],"sum_hessian":[2.56E2,8.2E1,1.74E2,3.7E1,4.5E1,5.1E1,1.23E2,2.8E1,9E0,2.9E1,1.6E1,3.2E1,1.9E1,4.8E1,7.5E1,1.7E1,1.1E1,1E0,8E0,6E0,2.3E1,3E0,1.3E1,3.1E1,1.7E1,7.4E1,1E0,1.6E1,1E0,1E0,7E0,5E0,1E0,6E0,1.7E1,2E0,1E0,1.3E1,1.8E1],"tree_param":{"num_deleted":"0","num_feature":"3","num_nodes":"39","size_leaf_vector":"0"}},{"base_weights":[1.7382385E1,1.4048722E1,2.141582E1,6.739404E0,1.4912118E1,1.0591141E1,1.7214157E1],"categories":[],"categories_nodes":[],"categories_segments":[],"categories_sizes":[],"default_left":[1,1,0,0,1,0,0],"id":48,"left_children":[1,3,-1,-1,5,-1,-1],"loss_changes":[1.7042109E3,4.0863477E2,0E0,0E0,2.8065234E2,0E0,0E0],"parents":[2147483647,0,0,1,1,4,4],"right_children":[2,4,-1,-1,6,-1,-1],"split_conditions":[3.021704E1,2.3825268E1,2.141582E0,6.739404E-1,1.3285943E1,1.0591141E0,1.7214158E0],"split_indices":[0,0,0,0,1,0,0],"split_type":[0,0,0,0,0,0,0],"sum_hessian":[2.56E2,1.55E2,1.01E2,2.2E1,1.33E2,5.8E1,7.5E1],"tree_param":{"num_deleted":"0","num_feature":"3","num_nodes":"7","size_leaf_vector":"0"}},{"base_weights":[7.582966E-1,1.1561424E-1,1.125653E0,-7.4774325E-2,2.3563439E-1,7.5114286E-1,1.4623876E0,-1.05426215E-1,4.691821E-2,9.3365446E-2,4.3461782E-1,3.295142E-1,1.0156136E0,-1.2035808E-1,-4.053129E-2,4.6114116E-3,6.974058E-2,-1.2710945E-2,1.4367422E-1,1.7112148E-1,5.672952E-1,1.0261751E-1,4.2532247E-1,3.9960718E-1,1.2884059E0,-1.2980193E-1,-2.6254956E-2,-5.237936E-2,-1.0305672E-2,-8.5130865E-3,1.1041483E-2,-4.2944983E-2,1.8690163E-2,5.089923E-2,1.7922798E-1,4.5412038E-2,2.3137532E-1,1.21639624E-1,-3.9170976E-3,1.579298E-1,5.1557034E-1,5.613591E-2,5.14023E-1,2.1124777E-1,1.3892895E0],"categories":[],"categories_nodes":[],"categories_segments":[],"categories_sizes":[],"default_left":[1,1,1,1,1,1,0,1,1,1,1,1,1,1,1,1,0,1,1,1,0,1,1,1,1,0,0,0,0,0,0,0,0,0,0,0,0,0,0,0,0,0,0,0,0],"id":49,"left_children":[1,3,5,7,9,11,-1,13,15,17,19,21,23,25,27,29,-1,31,33,35,-1,37,39,41,43,-1,-1,-1,-1,-1,-1,-1,-1,-1,-1,-1,-1,-1,-1,-1,-1,-1,-1,-1,-1],"loss_changes":[6.1080627E1,2.4383616E0,1.4297974E1,1.9421004E-1,1.5677416E0,8.128845E0,0E0,6.400168E-3,1.065262E-2,2.514391E-1,2.886281E-1,6.9359636E-1,5.8008194E0,3.4289956E-3,2.4824943E-3,1.5006547E-3,0E0,2.3885708E-2,4.7244966E-2,6.5585285E-2,0E0,4.553303E-2,2.085867E-1,8.098228E-1,1.9251251E0,0E0,0E0,0E0,0E0,0E0,0E0,0E0,0E0,0E0,0E0,0E0,0E0,0E0,0E0,0E0,0E0,0E0,0E0,0E0,0E0],"parents":[2147483647,0,0,1,1,2,2,3,3,4,4,5,5,7,7,8,8,9,9,10,10,11,11,12,12,13,13,14,14,15,15,17,17,18,18,19,19,21,21,22,22,23,23,24,24],"right_children":[2,4,6,8,10,12,-1,14,16,18,20,22,24,26,28,30,-1,32,34,36,-1,38,40,42,44,-1,-1,-1,-1,-1,-1,-1,-1,-1,-1,-1,-1,-1,-1,-1,-1,-1,-1,-1,-1],"split_conditions":[1.3031338E1,1.1783976E1,2.987703E1,3.3047028E1,3.1399223E1,1.416349E1,1.4623876E-1,2.9855955E1,3.4599335E1,1.2576536E1,1.2121794E1,1.4632004E1,1.3482174E1,1.1396958E1,1.0964205E1,1.0806364E1,6.9740578E-3,2.7290144E1,1.0645978E1,3.4429802E1,5.672952E-2,1.1466066E1,1.357119E1,1.4646669E1,2.3652817E1,-1.2980193E-2,-2.6254957E-3,-5.237936E-3,-1.0305672E-3,-8.5130864E-4,1.1041483E-3,-4.2944984E-3,1.8690163E-3,5.0899233E-3,1.7922798E-2,4.541204E-3,2.3137532E-2,1.2163962E-2,-3.9170976E-4,1.5792979E-2,5.1557034E-2,5.613591E-3,5.14023E-2,2.1124778E-2,1.3892895E-1],"split_indices":[1,1,0,0,0,1,0,0,0,1,1,2,2,1,1,1,0,0,2,0,0,2,1,1,0,0,0,0,0,0,0,0,0,0,0,0,0,0,0,0,0,0,0,0,0],"split_type":[0,0,0,0,0,0,0,0,0,0,0,0,0,0,0,0,0,0,0,0,0,0,0,0,0,0,0,0,0,0,0,0,0,0,0,0,0,0,0,0,0,0,0,0,0],"sum_hessian":[2.56E2,9.6E1,1.6E2,3.8E1,5.8E1,8.5E1,7.5E1,3.1E1,7E0,3.9E1,1.9E1,3.8E1,4.7E1,2.1E1,1E1,5E0,2E0,1.4E1,2.5E1,1.1E1,8E0,1.5E1,2.3E1,1.9E1,2.8E1,1.7E1,4E0,4E0,6E0,1E0,4E0,6E0,8E0,1.1E1,1.4E1,7E0,4E0,1.2E1,3E0,1E1,1.3E1,7E0,1.2E1,4E0,2.4E1],"tree_param":{"num_deleted":"0","num_feature":"3","num_nodes":"45","size_leaf_vector":"0"}},{"base_weights":[5.6488805E0,4.4138484E0,6.257698E0],"categories":[],"categories_nodes":[],"categories_segments":[],"categories_sizes":[],"default_left":[1,0,0],"id":50,"left_children":[1,-1,-1],"loss_changes":[3.0017578E1,0E0,0E0],"parents":[2147483647,0,0],"right_children":[2,-1,-1],"split_conditions":[1.33598E1,4.4138485E-1,6.257698E-1],"split_indices":[1,0,0],"split_type":[0,0,0],"sum_hessian":[2.56E2,1.01E2,1.55E2],"tree_param":{"num_deleted":"0","num_feature":"3","num_nodes":"3","size_leaf_vector":"0"}},{"base_weights":[1.873048E-3,-1.0828928E-1,5.3285074E-1,-1.788346E-1,1.5576684E-1,-9.512791E-2,8.251389E-1,-2.0030096E-1,-8.6031415E-2,-1.2127743E-1,6.4517593E-1,-1.1149694E-1,3.0744212E-2,-1.2422816E-1,1.8533466E-2,-1.3553356E-1,1.3434962E-2,-1.6485034E-2,7.286518E-1,-1.22461066E-1,-1.7525412E-2,-1.3116896E-1,-4.096695E-3,5.395861E-2,-4.885796E-2,-1.4911129E-1,-4.4569943E-2,3.443992E-2,-2.207919E-2,4.1320734E-3,-2.295644E-2,5.6482796E-3,-2.4649682E-2],"categories":[],"categories_nodes":[],"categories_segments":[],"categories_sizes":[],"default_left":[1,1,1,1,1,1,0,0,1,1,1,1,0,1,1,1,1,1,0,0,1,0,0,0,0,0,0,0,0,0,0,0,0],"id":51,"left_children":[1,3,5,7,9,11,-1,-1,13,15,17,19,-1,21,23,25,27,29,-1,-1,31,-1,-1,-1,-1,-1,-1,-1,-1,-1,-1,-1,-1],"loss_changes":[1.5677021E1,4.304718E0,8.926586E0,2.50494E-1,7.258899E0,6.2032804E-2,0E0,0E0,1.8984723E-1,8.215845E-2,1.1246467E0,6.6465735E-3,0E0,2.4305463E-2,5.6638412E-2,1.8635988E-3,1.1346839E-2,1.6472253E-3,0E0,0E0,2.3355023E-3,0E0,0E0,0E0,0E0,0E0,0E0,0E0,0E0,0E0,0E0,0E0,0E0],"parents":[2147483647,0,0,1,1,2,2,3,3,4,4,5,5,8,8,9,9,10,10,11,11,13,13,14,14,15,15,16,16,17,17,20,20],"right_children":[2,4,6,8,10,12,-1,-1,14,16,18,20,-1,22,24,26,28,30,-1,-1,32,-1,-1,-1,-1,-1,-1,-1,-1,-1,-1,-1,-1],"split_conditions":[1.4740944E1,3.316477E1,1.2036733E1,3.021704E1,1.4098976E1,1.0581279E1,8.251389E-2,-2.0030096E-2,1.4106696E1,1.3716445E1,1.7867956E1,3.2045525E1,3.0744213E-3,3.3020245E1,3.2027027E1,1.3194145E1,3.390061E1,3.3691578E1,7.286518E-2,-1.2246107E-2,3.3172554E1,-1.3116896E-2,-4.0966953E-4,5.395861E-3,-4.885796E-3,-1.4911129E-2,-4.4569946E-3,3.4439922E-3,-2.207919E-3,4.1320734E-4,-2.295644E-3,5.64828E-4,-2.4649682E-3],"split_indices":[1,0,2,0,1,2,0,0,1,1,2,0,0,0,0,1,0,0,0,0,0,0,0,0,0,0,0,0,0,0,0,0,0],"split_type":[0,0,0,0,0,0,0,0,0,0,0,0,0,0,0,0,0,0,0,0,0,0,0,0,0,0,0,0,0,0,0,0,0],"sum_hessian":[2.56E2,2.16E2,4E1,1.72E2,4.4E1,1.4E1,2.6E1,1.34E2,3.8E1,3.1E1,1.3E1,1.3E1,1E0,2.7E1,1.1E1,2.8E1,3E0,2E0,1.1E1,1E1,3E0,2.5E1,2E0,8E0,3E0,2.1E1,7E0,2E0,1E0,1E0,1E0,1E0,2E0],"tree_param":{"num_deleted":"0","num_feature":"3","num_nodes":"33","size_leaf_vector":"0"}},{"base_weights":[-3.6499497E-1,-2.4586828E-1,-8.9151514E-1,-1.6357736E-1,-4.9564916E-1,-1.8481715E-1,-1.1653701E0,-1.3449787E-1,-2.3690876E-1,-2.1071558E-1,-9.2241853E-1,-8.061922E-2,-2.6472104E-1,-6.3265935E-2,-2.259102E-1,-6.921112E-2,-9.979691E-1],"categories":[],"categories_nodes":[],"categories_segments":[],"categories_sizes":[],"default_left":[1,1,1,1,1,0,0,0,1,1,1,0,0,0,0,0,0],"id":52,"left_children":[1,3,5,7,9,-1,-1,-1,11,13,15,-1,-1,-1,-1,-1,-1],"loss_changes":[1.5110813E1,4.073844E0,7.6091995E0,1.8273258E-1,5.1536274E0,0E0,0E0,0E0,5.3717375E-2,1.0576248E-3,8.1010437E-1,0E0,0E0,0E0,0E0,0E0,0E0],"parents":[2147483647,0,0,1,1,2,2,3,3,4,4,8,8,9,9,10,10],"right_children":[2,4,6,8,10,-1,-1,-1,12,14,16,-1,-1,-1,-1,-1,-1],"split_conditions":[1.4740944E1,3.3020245E1,1.2036733E1,3.021704E1,1.4141222E1,-1.8481715E-2,-1.1653701E-1,-1.3449787E-2,1.2121794E1,1.1479122E1,1.7867956E1,-8.061922E-3,-2.6472105E-2,-6.3265935E-3,-2.259102E-2,-6.921112E-3,-9.979691E-2],"split_indices":[1,0,2,0,1,0,0,0,1,1,2,0,0,0,0,0,0],"split_type":[0,0,0,0,0,0,0,0,0,0,0,0,0,0,0,0,0],"sum_hessian":[2.56E2,2.16E2,4E1,1.7E2,4.6E1,1.4E1,2.6E1,1.34E2,3.6E1,3.3E1,1.3E1,9E0,2.7E1,6E0,2.7E1,2E0,1.1E1],"tree_param":{"num_deleted":"0","num_feature":"3","num_nodes":"17","size_leaf_vector":"0"}},{"base_weights":[1.5097463E-1,6.38713E-2,2.1964651E-1,-1.4350977E-2,1.0949967E-1,9.871271E-2,2.6686618E-1,-3.163465E-2,1.706016E-2,4.466775E-2,1.9156992E-1,4.6803463E-2,1.3922533E-1,1.570431E-1,3.1136E-1,-3.8058348E-2,-1.2831542E-2,1.9222755E-2,-1.1473984E-3,-8.313659E-3,5.401671E-2,3.5517316E-2,2.3283856E-1,8.442638E-2,1.9160667E-1,1.770533E-3,2.0563606E-2,1.2783338E-3,-2.5885554E-3,-1.8090494E-2,3.3588528E-3,2.3354856E-2,7.492063E-2,-7.7615627E-3,6.462429E-2,8.632641E-2,5.7665855E-3],"categories":[],"categories_nodes":[],"categories_segments":[],"categories_sizes":[],"default_left":[1,1,1,1,1,1,1,1,1,1,1,0,0,1,0,0,0,1,1,1,1,1,0,1,0,0,0,0,0,0,0,0,0,0,0,0,0],"id":53,"left_children":[1,3,5,7,9,11,13,15,17,19,21,-1,-1,23,-1,-1,-1,25,27,29,31,33,-1,35,-1,-1,-1,-1,-1,-1,-1,-1,-1,-1,-1,-1,-1],"loss_changes":[1.4826136E0,4.5224482E-1,6.6327953E-1,3.097682E-2,3.6884737E-1,6.5844685E-2,1.9319916E-1,1.2801737E-3,1.00148E-3,2.8495438E-2,1.6281784E-1,0E0,0E0,5.2046776E-3,0E0,0E0,0E0,2.4895556E-4,4.8140253E-5,1.8563445E-3,1.8292338E-2,2.0728154E-2,0E0,5.837679E-4,0E0,0E0,0E0,0E0,0E0,0E0,0E0,0E0,0E0,0E0,0E0,0E0,0E0],"parents":[2147483647,0,0,1,1,2,2,3,3,4,4,5,5,6,6,7,7,8,8,9,9,10,10,13,13,17,17,18,18,19,19,20,20,21,21,23,23],"right_children":[2,4,6,8,10,12,14,16,18,20,22,-1,-1,24,-1,-1,-1,26,28,30,32,34,-1,36,-1,-1,-1,-1,-1,-1,-1,-1,-1,-1,-1,-1,-1],"split_conditions":[2.934063E1,1.3482174E1,1.2355316E1,2.6355602E1,1.4139533E1,3.2193092E1,1.2837193E1,2.421099E1,1.1768185E1,2.5274868E1,2.4878712E1,4.680346E-3,1.3922534E-2,3.26676E1,3.1136E-2,-3.8058348E-3,-1.2831542E-3,2.7117043E1,2.8063543E1,1.3051958E1,1.2778257E1,1.464837E1,2.3283856E-2,1.0816E2,1.9160667E-2,1.7705331E-4,2.0563607E-3,1.2783338E-4,-2.5885555E-4,-1.8090494E-3,3.358853E-4,2.3354858E-3,7.492063E-3,-7.7615626E-4,6.4624287E-3,8.632641E-3,5.766586E-4],"split_indices":[0,2,2,0,1,0,1,0,2,0,0,0,0,0,0,0,0,0,0,1,1,1,0,2,0,0,0,0,0,0,0,0,0,0,0,0,0],"split_type":[0,0,0,0,0,0,0,0,0,0,0,0,0,0,0,0,0,0,0,0,0,0,0,0,0,0,0,0,0,0,0,0,0,0,0,0,0],"sum_hessian":[2.56E2,1.18E2,1.38E2,4.5E1,7.3E1,4.4E1,9.4E1,2.9E1,1.6E1,4.6E1,2.7E1,2.5E1,1.9E1,3.5E1,5.9E1,1.7E1,1.2E1,1.4E1,2E0,7E0,3.9E1,8E0,1.9E1,1.8E1,1.7E1,2E0,1.2E1,1E0,1E0,2E0,5E0,2.1E1,1.8E1,5E0,3E0,1.7E1,1E0],"tree_param":{"num_deleted":"0","num_feature":"3","num_nodes":"37","size_leaf_vector":"0"}},{"base_weights":[1.5773278E1,1.0345246E1,1.7693882E1,1.3671543E1,2.260711E1,7.7039924E0,1.5193036E1,5.1029162E0,2.369707E1],"categories":[],"categories_nodes":[],"categories_segments":[],"categories_sizes":[],"default_left":[1,0,1,1,1,0,0,0,0],"id":54,"left_children":[1,-1,3,5,7,-1,-1,-1,-1],"loss_changes":[1.625E3,0E0,1.788082E3,3.549668E2,6.815156E2,0E0,0E0,0E0,0E0],"parents":[2147483647,0,0,2,2,3,3,4,4],"right_children":[2,-1,4,6,8,-1,-1,-1,-1],"split_conditions":[1.127008E1,1.0345247E0,1.416349E1,2.7995647E1,2.3652817E1,7.703993E-1,1.5193037E0,5.1029164E-1,2.3697069E0],"split_indices":[2,0,1,0,0,0,0,0,0],"split_type":[0,0,0,0,0,0,0,0,0],"sum_hessian":[2.56E2,7.7E1,1.79E2,1.11E2,6.8E1,3E1,8.1E1,6E0,6.2E1],"tree_param":{"num_deleted":"0","num_feature":"3","num_nodes":"9","size_leaf_vector":"0"}},{"base_weights":[6.9476116E-1,1.09406486E-1,1.0291996E0,-6.0713887E-2,2.2967575E-1,3.0111456E-1,1.1453406E0,-9.434796E-2,4.873078E-2,-1.7084507E-2,3.1230265E-1,1.2547272E-1,4.1801608E-1,6.632762E-1,1.2841868E0,-1.1779653E-1,-3.776175E-2,-8.493929E-3,6.143965E-2,-5.003189E-2,8.393866E-3,7.4407324E-2,4.021897E-1,1.4502941E-1,-3.7829157E-2,2.8806007E-1,9.029102E-1,7.188802E-1,1.4185333E0,-5.372914E-2,-4.2927717E-3,-9.646775E-3,-5.249632E-5,-9.792396E-3,2.3631737E-2,2.7760546E-4,8.252954E-2,1.8844897E-1,5.048577E-1,1.7130394E-2,1.7045552E-1,1.1395983E-1,4.087171E-1,1.6578712E-1,9.999521E-1],"categories":[],"categories_nodes":[],"categories_segments":[],"categories_sizes":[],"default_left":[1,1,1,1,1,1,1,1,1,1,1,1,0,1,1,0,1,1,0,0,1,1,1,1,0,1,0,1,0,0,0,0,0,0,0,0,0,0,0,0,0,0,0,0,0],"id":55,"left_children":[1,3,5,7,9,11,13,15,17,19,21,23,-1,25,27,-1,29,31,-1,-1,33,35,37,39,-1,41,-1,43,-1,-1,-1,-1,-1,-1,-1,-1,-1,-1,-1,-1,-1,-1,-1,-1,-1],"loss_changes":[5.061875E1,2.1722264E0,1.1955551E1,2.0098443E-1,1.2769506E0,3.2032228E-1,4.2901154E0,2.358532E-2,1.40986815E-2,2.0207189E-2,8.036952E-1,1.003916E-1,0E0,2.387703E0,1.6597443E0,5.066395E-7,9.318609E-3,7.524749E-5,0E0,0E0,6.123355E-3,1.1931658E-2,1.2794638E-1,4.753527E-2,0E0,2.6550364E-1,0E0,3.9795246E0,0E0,0E0,0E0,0E0,0E0,0E0,0E0,0E0,0E0,0E0,0E0,0E0,0E0,0E0,0E0,0E0,0E0],"parents":[2147483647,0,0,1,1,2,2,3,3,4,4,5,5,6,6,7,7,8,8,9,9,10,10,11,11,13,13,14,14,16,16,17,17,20,20,21,21,22,22,23,23,25,25,27,27],"right_children":[2,4,6,8,10,12,14,16,18,20,22,24,-1,26,28,-1,30,32,-1,-1,34,36,38,40,-1,42,-1,44,-1,-1,-1,-1,-1,-1,-1,-1,-1,-1,-1,-1,-1,-1,-1,-1,-1],"split_conditions":[1.3031338E1,3.0159206E1,2.4600273E1,1.2531829E1,1.1479122E1,1.4490881E1,1.2670492E1,1.1396958E1,2.6573822E1,1.0806364E1,1.537E1,1.4444185E1,4.180161E-2,1.4462252E1,1.3676937E1,-1.1779654E-2,2.7133848E1,2.5419584E1,6.143965E-3,-5.003189E-3,3.26E1,1.2295576E1,1.2294151E1,2.3029549E1,-3.7829156E-3,3.1020721E1,9.0291016E-2,2.9013588E1,1.4185333E-1,-5.372914E-3,-4.2927716E-4,-9.6467754E-4,-5.249632E-6,-9.792396E-4,2.3631738E-3,2.7760547E-5,8.252954E-3,1.8844897E-2,5.048577E-2,1.7130394E-3,1.7045552E-2,1.13959825E-2,4.087171E-2,1.6578712E-2,9.999521E-2],"split_indices":[1,0,0,1,1,1,2,1,0,1,2,1,0,1,1,0,0,0,0,0,0,1,1,0,0,0,0,0,0,0,0,0,0,0,0,0,0,0,0,0,0,0,0,0,0],"split_type":[0,0,0,0,0,0,0,0,0,0,0,0,0,0,0,0,0,0,0,0,0,0,0,0,0,0,0,0,0,0,0,0,0,0,0,0,0,0,0,0,0,0,0,0,0],"sum_hessian":[2.56E2,9.6E1,1.6E2,4.1E1,5.5E1,2.5E1,1.35E2,3.2E1,9E0,1.5E1,4E1,1.5E1,1E1,3.8E1,9.7E1,1.8E1,1.4E1,2E0,7E0,4E0,1.1E1,1.4E1,2.6E1,1.4E1,1E0,2E1,1.8E1,2.6E1,7.1E1,7E0,7E0,1E0,1E0,6E0,5E0,2E0,1.2E1,1.4E1,1.2E1,4E0,1E1,1.3E1,7E0,1.2E1,1.4E1],"tree_param":{"num_deleted":"0","num_feature":"3","num_nodes":"45","size_leaf_vector":"0"}},{"base_weights":[5.108618E0,4.1959434E0,5.8273525E0],"categories":[],"categories_nodes":[],"categories_segments":[],"categories_sizes":[],"default_left":[1,0,0],"id":56,"left_children":[1,-1,-1],"loss_changes":[2.4041016E1,0E0,0E0],"parents":[2147483647,0,0],"right_children":[2,-1,-1],"split_conditions":[1.3683907E1,4.1959435E-1,5.8273524E-1],"split_indices":[1,0,0],"split_type":[0,0,0],"sum_hessian":[2.56E2,1.31E2,1.25E2],"tree_param":{"num_deleted":"0","num_feature":"3","num_nodes":"3","size_leaf_vector":"0"}},{"base_weights":[3.7913043E-3,-9.6921034E-2,4.8894748E-1,-1.6207348E-1,1.4657584E-1,-8.89548E-2,7.581945E-1,-1.8113571E-1,-7.921523E-2,-1.1210926E-1,6.031936E-1,-1.0483831E-1,3.0307934E-2,-1.3696603E-1,-1.2295046E-2,-1.254201E-1,1.2917647E-2,-1.6251098E-2,6.8163353E-1,-1.14829615E-1,-1.704291E-2,-1.3994962E-1,-1.0101907E-2,-9.770175E-2,5.459491E-2,3.358394E-2,-2.1765875E-2,4.0734406E-3,-2.2630673E-2,5.568129E-3,-2.4037028E-2],"categories":[],"categories_nodes":[],"categories_segments":[],"categories_sizes":[],"default_left":[1,1,1,1,1,1,0,0,1,1,1,1,0,1,1,0,1,1,0,0,1,0,0,0,0,0,0,0,0,0,0],"id":57,"left_children":[1,3,5,7,9,11,-1,-1,13,15,17,19,-1,21,23,-1,25,27,-1,-1,29,-1,-1,-1,-1,-1,-1,-1,-1,-1,-1],"loss_changes":[1.30904875E1,3.6662943E0,7.5726604E0,1.9445372E-1,6.320462E0,5.7188705E-2,0E0,0E0,1.6004479E-1,7.145062E-2,9.9245787E-1,4.8737973E-3,0E0,1.7464161E-4,1.8676916E-1,0E0,1.0904819E-2,1.6008078E-3,0E0,0E0,2.2400392E-3,0E0,0E0,0E0,0E0,0E0,0E0,0E0,0E0,0E0,0E0],"parents":[2147483647,0,0,1,1,2,2,3,3,4,4,5,5,8,8,9,9,10,10,11,11,13,13,14,14,16,16,17,17,20,20],"right_children":[2,4,6,8,10,12,-1,-1,14,16,18,20,-1,22,24,-1,26,28,-1,-1,30,-1,-1,-1,-1,-1,-1,-1,-1,-1,-1],"split_conditions":[1.4740944E1,3.316477E1,1.2036733E1,3.021704E1,1.4098976E1,1.0581279E1,7.5819455E-2,-1.8113572E-2,1.3515035E1,1.3716445E1,1.7867956E1,3.2045525E1,3.0307935E-3,3.2842712E1,1.4445814E1,-1.2542009E-2,3.390061E1,3.3691578E1,6.816336E-2,-1.14829615E-2,3.3172554E1,-1.3994962E-2,-1.0101907E-3,-9.770175E-3,5.459491E-3,3.358394E-3,-2.1765875E-3,4.0734405E-4,-2.2630673E-3,5.568129E-4,-2.4037028E-3],"split_indices":[1,0,2,0,1,2,0,0,1,1,2,0,0,0,2,0,0,0,0,0,0,0,0,0,0,0,0,0,0,0,0],"split_type":[0,0,0,0,0,0,0,0,0,0,0,0,0,0,0,0,0,0,0,0,0,0,0,0,0,0,0,0,0,0,0],"sum_hessian":[2.56E2,2.16E2,4E1,1.72E2,4.4E1,1.4E1,2.6E1,1.34E2,3.8E1,3.1E1,1.3E1,1.3E1,1E0,1.7E1,2.1E1,2.8E1,3E0,2E0,1.1E1,1E1,3E0,1.6E1,1E0,8E0,1.3E1,2E0,1E0,1E0,1E0,1E0,2E0],"tree_param":{"num_deleted":"0","num_feature":"3","num_nodes":"31","size_leaf_vector":"0"}},{"base_weights":[-3.3584824E-1,-2.2628188E-1,-8.2009435E-1,-1.4886779E-1,-4.6184263E-1,-1.7191023E-1,-1.0708224E0,-1.2162881E-1,-2.1818434E-1,-1.9412227E-1,-8.6405694E-1,-9.340049E-2,-2.5458777E-1,-9.704925E-2,-2.3605075E-1,-6.749092E-2,-9.335723E-1,-1.5759034E-2,-2.5970548E-1],"categories":[],"categories_nodes":[],"categories_segments":[],"categories_sizes":[],"default_left":[1,1,1,1,1,0,0,0,1,1,1,0,1,0,0,0,0,0,0],"id":58,"left_children":[1,3,5,7,9,-1,-1,-1,11,13,15,-1,17,-1,-1,-1,-1,-1,-1],"loss_changes":[1.2781303E1,3.63344E0,6.370302E0,1.7192698E-1,4.5901966E0,0E0,0E0,0E0,4.7213554E-2,2.0400047E-2,6.7369366E-1,0E0,1.0754585E-2,0E0,0E0,0E0,0E0,0E0,0E0],"parents":[2147483647,0,0,1,1,2,2,3,3,4,4,8,8,9,9,10,10,12,12],"right_children":[2,4,6,8,10,-1,-1,-1,12,14,16,-1,18,-1,-1,-1,-1,-1,-1],"split_conditions":[1.4740944E1,3.3020245E1,1.2036733E1,3.021704E1,1.4141222E1,-1.7191023E-2,-1.0708224E-1,-1.2162882E-2,1.2904892E1,1.211945E1,1.7867956E1,-9.34005E-3,6.0075865E0,-9.704925E-3,-2.3605077E-2,-6.749092E-3,-9.335723E-2,-1.5759034E-3,-2.5970548E-2],"split_indices":[1,0,2,0,1,0,0,0,1,1,2,0,2,0,0,0,0,0,0],"split_type":[0,0,0,0,0,0,0,0,0,0,0,0,0,0,0,0,0,0,0],"sum_hessian":[2.56E2,2.16E2,4E1,1.7E2,4.6E1,1.4E1,2.6E1,1.34E2,3.6E1,3.3E1,1.3E1,1.3E1,2.3E1,1.6E1,1.7E1,2E0,1.1E1,1E0,2.2E1],"tree_param":{"num_deleted":"0","num_feature":"3","num_nodes":"19","size_leaf_vector":"0"}},{"base_weights":[1.3847196E-1,3.387804E-2,1.849701E-1,-2.0781748E-2,7.5958505E-2,8.403483E-2,2.2092251E-1,-2.9914184E-2,8.233948E-3,3.6676116E-2,1.847198E-1,4.1298803E-2,1.2866403E-1,1.2104013E-1,2.7104703E-1,-3.4310244E-2,-1.0574939E-2,-1.4352223E-3,9.54013E-3,-1.3548247E-2,5.5309027E-2,6.461923E-2,1.7517938E-1,-3.5032246E-2,-2.4050742E-3,-1.6547708E-2,2.2413726E-3,2.1714095E-2,8.9003734E-2,2.9861834E-2,7.638978E-2],"categories":[],"categories_nodes":[],"categories_segments":[],"categories_sizes":[],"default_left":[1,1,1,1,1,1,1,1,1,1,0,0,0,1,0,1,0,0,0,1,1,1,0,0,0,0,0,0,0,0,0],"id":59,"left_children":[1,3,5,7,9,11,13,15,17,19,-1,-1,-1,21,-1,23,-1,-1,-1,25,27,29,-1,-1,-1,-1,-1,-1,-1,-1,-1],"loss_changes":[1.2365522E0,2.1206282E-1,5.4110384E-1,1.28961615E-2,1.7712638E-1,7.667291E-2,4.4769764E-1,7.005576E-4,2.7283328E-4,4.668725E-2,0E0,0E0,0E0,9.664029E-2,0E0,6.748922E-5,0E0,0E0,0E0,1.0316239E-3,2.6853658E-2,9.534508E-4,0E0,0E0,0E0,0E0,0E0,0E0,0E0,0E0,0E0],"parents":[2147483647,0,0,1,1,2,2,3,3,4,4,5,5,6,6,7,7,8,8,9,9,13,13,15,15,19,19,20,20,21,21],"right_children":[2,4,6,8,10,12,14,16,18,20,-1,-1,-1,22,-1,24,-1,-1,-1,26,28,30,-1,-1,-1,-1,-1,-1,-1,-1,-1],"split_conditions":[2.7768417E1,1.3745114E1,1.2355316E1,2.609483E1,1.48165E1,3.2193092E1,1.2969487E1,2.4540714E1,2.6355602E1,2.446879E1,1.847198E-2,4.1298806E-3,1.2866403E-2,3.1896576E1,2.7104704E-2,1.2831552E1,-1.0574938E-3,-1.4352224E-4,9.54013E-4,2.4156073E1,1.3948581E1,2.9652922E1,1.7517937E-2,-3.5032246E-3,-2.4050742E-4,-1.6547708E-3,2.2413726E-4,2.1714095E-3,8.900373E-3,2.9861834E-3,7.6389783E-3],"split_indices":[0,2,2,0,1,0,1,0,0,0,0,0,0,0,0,2,0,0,0,0,1,0,0,0,0,0,0,0,0,0,0],"split_type":[0,0,0,0,0,0,0,0,0,0,0,0,0,0,0,0,0,0,0,0,0,0,0,0,0,0,0,0,0,0,0],"sum_hessian":[2.56E2,8.2E1,1.74E2,3.7E1,4.5E1,5.1E1,1.23E2,2.8E1,9E0,3.9E1,6E0,3.2E1,1.9E1,4.8E1,7.5E1,1.9E1,9E0,1E0,8E0,1.1E1,2.8E1,3E1,1.8E1,1.8E1,1E0,9E0,2E0,1.9E1,9E0,1.3E1,1.7E1],"tree_param":{"num_deleted":"0","num_feature":"3","num_nodes":"31","size_leaf_vector":"0"}},{"base_weights":[1.4339117E1,9.62676E0,1.6235392E1,5.407959E0,1.0828807E1,1.1998033E1,2.0015936E1,7.749809E0,1.4191343E1,5.0562506E0,2.096592E1],"categories":[],"categories_nodes":[],"categories_segments":[],"categories_sizes":[],"default_left":[1,1,1,0,0,1,1,0,0,0,0],"id":60,"left_children":[1,3,5,-1,-1,7,9,-1,-1,-1,-1],"loss_changes":[1.3965352E3,1.025293E2,1.4000547E3,0E0,0E0,2.5784766E2,5.676094E2,0E0,0E0,0E0,0E0],"parents":[2147483647,0,0,1,1,2,2,5,5,6,6],"right_children":[2,4,6,-1,-1,8,10,-1,-1,-1,-1],"split_conditions":[1.2355316E1,2.6355602E1,1.3785032E1,5.407959E-1,1.0828807E0,2.9113724E1,2.3652817E1,7.749809E-1,1.4191344E0,5.0562507E-1,2.096592E0],"split_indices":[2,0,1,0,0,0,0,0,0,0,0],"split_type":[0,0,0,0,0,0,0,0,0,0,0],"sum_hessian":[2.56E2,8.4E1,1.72E2,2.6E1,5.8E1,9.3E1,7.9E1,4.1E1,5.2E1,7E0,7.2E1],"tree_param":{"num_deleted":"0","num_feature":"3","num_nodes":"11","size_leaf_vector":"0"}},{"base_weights":[6.372693E-1,1.0211508E-1,9.4294995E-1,4.0655784E-2,4.4112965E-1,2.820614E-1,1.0479974E0,-4.897956E-2,1.7220229E-1,2.1595076E-2,4.617001E-1,1.17228046E-1,3.919664E-1,6.165195E-1,1.170933E0,-7.99099E-2,1.7419819E-2,-1.0202591E-2,2.1397008E-1,1.6828831E-2,1.7099036E-1,2.6480358E-2,4.0561455E-1,2.7138823E-1,8.35324E-1,6.689884E-1,1.2878132E0,-9.185359E-2,3.885887E-3,-1.7874908E-2,4.1751347E-2,-3.2126404E-2,1.5679678E-2,5.82981E-2,2.8956985E-1,3.8261067E-2,-3.7292343E-2,1.0618179E-1,3.8678834E-1,1.5476339E-1,9.301192E-1,2.252095E-1,1.312473E0],"categories":[],"categories_nodes":[],"categories_segments":[],"categories_sizes":[],"default_left":[1,1,1,1,1,1,1,1,1,0,0,1,1,1,1,1,1,1,1,1,0,0,0,1,0,1,1,0,0,0,0,0,0,0,0,0,0,0,0,0,0,0,0],"id":61,"left_children":[1,3,5,7,9,11,13,15,17,-1,-1,19,21,23,25,27,29,31,33,35,-1,-1,-1,37,-1,39,41,-1,-1,-1,-1,-1,-1,-1,-1,-1,-1,-1,-1,-1,-1,-1,-1],"loss_changes":[4.228501E1,2.0177603E0,9.74028E0,1.148138E0,6.956482E-2,2.8459406E-1,3.1164398E0,1.3173902E-1,3.1068528E-1,0E0,0E0,9.620437E-2,1.5096664E-2,1.9554424E0,8.358917E-1,4.4240147E-2,2.5163678E-2,1.0449319E-2,2.7507257E-1,2.492151E-2,0E0,0E0,0E0,2.4823463E-1,0E0,3.4328175E0,2.3156738E-1,0E0,0E0,0E0,0E0,0E0,0E0,0E0,0E0,0E0,0E0,0E0,0E0,0E0,0E0,0E0,0E0],"parents":[2147483647,0,0,1,1,2,2,3,3,4,4,5,5,6,6,7,7,8,8,11,11,12,12,13,13,14,14,15,15,16,16,17,17,18,18,19,19,23,23,25,25,26,26],"right_children":[2,4,6,8,10,12,14,16,18,-1,-1,20,22,24,26,28,30,32,34,36,-1,-1,-1,38,-1,40,42,-1,-1,-1,-1,-1,-1,-1,-1,-1,-1,-1,-1,-1,-1,-1,-1],"split_conditions":[1.3031338E1,3.4599335E1,2.4600273E1,1.2250843E1,1.1284197E1,1.4490881E1,1.2670492E1,1.1783976E1,2.770803E1,2.1595077E-3,4.617001E-2,1.3036473E1,2.21977E1,1.4462252E1,1.3676937E1,3.3047028E1,2.9400002E1,2.5419584E1,1.6470158E1,1.435191E1,1.7099036E-2,2.6480358E-3,4.0561456E-2,3.1020721E1,8.35324E-2,2.9013588E1,2.5037132E1,-9.185359E-3,3.8858873E-4,-1.7874908E-3,4.175135E-3,-3.2126405E-3,1.5679678E-3,5.82981E-3,2.8956985E-2,3.8261067E-3,-3.7292342E-3,1.0618179E-2,3.8678836E-2,1.5476339E-2,9.301192E-2,2.252095E-2,1.3124731E-1],"split_indices":[1,0,0,1,1,1,2,1,0,0,0,2,0,1,1,0,0,0,2,1,0,0,0,0,0,0,0,0,0,0,0,0,0,0,0,0,0,0,0,0,0,0,0],"split_type":[0,0,0,0,0,0,0,0,0,0,0,0,0,0,0,0,0,0,0,0,0,0,0,0,0,0,0,0,0,0,0,0,0,0,0,0,0,0,0,0,0,0,0],"sum_hessian":[2.56E2,9.6E1,1.6E2,8.7E1,9E0,2.5E1,1.35E2,5.4E1,3.3E1,1E0,8E0,1.5E1,1E1,3.8E1,9.7E1,3.6E1,1.8E1,7E0,2.6E1,8E0,7E0,1E0,9E0,2E1,1.8E1,2.6E1,7.1E1,3.1E1,5E0,8E0,1E1,3E0,4E0,1.2E1,1.4E1,7E0,1E0,1.3E1,7E0,1.2E1,1.4E1,3E0,6.8E1],"tree_param":{"num_deleted":"0","num_feature":"3","num_nodes":"43","size_leaf_vector":"0"}},{"base_weights":[4.6208854E0,3.5626287E0,5.102977E0],"categories":[],"categories_nodes":[],"categories_segments":[],"categories_sizes":[],"default_left":[1,0,0],"id":62,"left_children":[1,-1,-1],"loss_changes":[2.3757812E1,0E0,0E0],"parents":[2147483647,0,0],"right_children":[2,-1,-1],"split_conditions":[1.3031338E1,3.562629E-1,5.102977E-1],"split_indices":[1,0,0],"split_type":[0,0,0],"sum_hessian":[2.56E2,9.6E1,1.6E2],"tree_param":{"num_deleted":"0","num_feature":"3","num_nodes":"3","size_leaf_vector":"0"}},{"base_weights":[5.3283307E-3,-8.675187E-2,4.4865686E-1,-1.4713733E-1,1.3855724E-1,-8.316591E-2,6.966813E-1,-1.6380425E-1,-7.394545E-2,-1.0275258E-1,5.6392515E-1,-9.8586366E-2,2.9877847E-2,-1.06821835E-1,1.6018324E-2,-1.1510561E-1,1.2415792E-2,-1.6020482E-2,6.376491E-1,-1.0767375E-1,-1.6573071E-2,-1.3736191E-1,-4.5583706E-2,4.7776226E-2,-4.399796E-2,-1.3509987E-1,-4.7243536E-2,3.2749232E-2,-2.1457003E-2,4.0156366E-3,-2.2309529E-2,5.4891114E-3,-2.3439603E-2],"categories":[],"categories_nodes":[],"categories_segments":[],"categories_sizes":[],"default_left":[1,1,1,1,1,1,0,0,1,1,1,1,0,1,1,1,1,1,0,0,1,0,0,0,0,0,0,0,0,0,0,0,0],"id":63,"left_children":[1,3,5,7,9,11,-1,-1,13,15,17,19,-1,21,23,25,27,29,-1,-1,31,-1,-1,-1,-1,-1,-1,-1,-1,-1,-1,-1,-1],"loss_changes":[1.0932578E1,3.1443126E0,6.424176E0,1.4395308E-1,5.4874725E0,5.275692E-2,0E0,0E0,1.4062367E-1,6.1347604E-2,8.7613964E-1,3.4047961E-3,0E0,2.394247E-2,4.520216E-2,7.601708E-3,1.0480212E-2,1.5556973E-3,0E0,0E0,2.14853E-3,0E0,0E0,0E0,0E0,0E0,0E0,0E0,0E0,0E0,0E0,0E0,0E0],"parents":[2147483647,0,0,1,1,2,2,3,3,4,4,5,5,8,8,9,9,10,10,11,11,13,13,14,14,15,15,16,16,17,17,20,20],"right_children":[2,4,6,8,10,12,-1,-1,14,16,18,20,-1,22,24,26,28,30,-1,-1,32,-1,-1,-1,-1,-1,-1,-1,-1,-1,-1,-1,-1],"split_conditions":[1.4740944E1,3.316477E1,1.2036733E1,3.021704E1,1.4098976E1,1.0581279E1,6.966814E-2,-1.6380426E-2,1.4106696E1,1.3716445E1,1.7867956E1,3.2045525E1,2.9877848E-3,1.2904892E1,3.2027027E1,1.2467936E1,3.390061E1,3.3691578E1,6.3764915E-2,-1.0767375E-2,3.3172554E1,-1.3736191E-2,-4.558371E-3,4.777623E-3,-4.399796E-3,-1.3509988E-2,-4.7243536E-3,3.2749232E-3,-2.1457004E-3,4.0156368E-4,-2.230953E-3,5.4891116E-4,-2.3439603E-3],"split_indices":[1,0,2,0,1,2,0,0,1,1,2,0,0,1,0,1,0,0,0,0,0,0,0,0,0,0,0,0,0,0,0,0,0],"split_type":[0,0,0,0,0,0,0,0,0,0,0,0,0,0,0,0,0,0,0,0,0,0,0,0,0,0,0,0,0,0,0,0,0],"sum_hessian":[2.56E2,2.16E2,4E1,1.72E2,4.4E1,1.4E1,2.6E1,1.34E2,3.8E1,3.1E1,1.3E1,1.3E1,1E0,2.7E1,1.1E1,2.8E1,3E0,2E0,1.1E1,1E1,3E0,1.3E1,1.4E1,8E0,3E0,1.7E1,1.1E1,2E0,1E0,1E0,1E0,1E0,2E0],"tree_param":{"num_deleted":"0","num_feature":"3","num_nodes":"33","size_leaf_vector":"0"}},{"base_weights":[-3.093416E-1,-2.086227E-1,-7.5440454E-1,-1.3566576E-1,-4.311589E-1,-1.5990466E-1,-9.8394537E-1,-1.0999109E-1,-2.0167066E-1,-1.798685E-1,-8.094324E-1,-8.7025665E-2,-2.3486353E-1,-9.000614E-2,-2.1863902E-1,-6.581348E-2,-8.733309E-1,-1.5535404E-2,-2.3933415E-1,-5.56791E-2,-2.4513187E-1],"categories":[],"categories_nodes":[],"categories_segments":[],"categories_sizes":[],"default_left":[1,1,1,1,1,0,0,0,1,1,1,0,1,0,1,0,0,0,0,0,0],"id":64,"left_children":[1,3,5,7,9,-1,-1,-1,11,13,15,-1,17,-1,19,-1,-1,-1,-1,-1,-1],"loss_changes":[1.0794888E1,3.2513523E0,5.332247E0,1.642065E-1,4.0670185E0,0E0,0E0,0E0,3.6411405E-2,1.7043829E-2,5.5747795E-1,0E0,5.998254E-3,0E0,1.6967177E-2,0E0,0E0,0E0,0E0,0E0,0E0],"parents":[2147483647,0,0,1,1,2,2,3,3,4,4,8,8,9,9,10,10,12,12,14,14],"right_children":[2,4,6,8,10,-1,-1,-1,12,14,16,-1,18,-1,20,-1,-1,-1,-1,-1,-1],"split_conditions":[1.4740944E1,3.3020245E1,1.2036733E1,3.021704E1,1.4141222E1,-1.5990466E-2,-9.8394535E-2,-1.0999109E-2,1.2904892E1,1.211945E1,1.7867956E1,-8.702567E-3,6.0075865E0,-9.000614E-3,1.0619905E1,-6.5813484E-3,-8.733309E-2,-1.5535405E-3,-2.3933416E-2,-5.56791E-3,-2.4513187E-2],"split_indices":[1,0,2,0,1,0,0,0,1,1,2,0,2,0,2,0,0,0,0,0,0],"split_type":[0,0,0,0,0,0,0,0,0,0,0,0,0,0,0,0,0,0,0,0,0],"sum_hessian":[2.56E2,2.16E2,4E1,1.7E2,4.6E1,1.4E1,2.6E1,1.34E2,3.6E1,3.3E1,1.3E1,1.3E1,2.3E1,1.6E1,1.7E1,2E0,1.1E1,1E0,2.2E1,5E0,1.2E1],"tree_param":{"num_deleted":"0","num_feature":"3","num_nodes":"21","size_leaf_vector":"0"}},{"base_weights":[1.2684849E-1,5.3887263E-2,1.8435459E-1,-1.3087204E-2,9.3015775E-2,8.414149E-2,2.2334212E-1,-2.7267441E-2,1.3043926E-2,3.5732385E-2,1.6621375E-1,3.9709177E-2,1.189039E-1,1.08468644E-1,2.491211E-1,-3.280855E-2,-1.10547505E-2,1.6198955E-2,-4.618015E-3,-8.151779E-3,4.364596E-2,1.5658673E-3,1.8856117E-1,8.484468E-3,1.213622E-1,3.438699E-2,1.31355E-1,-3.3538844E-2,-2.3709452E-3,1.4241446E-3,1.7359152E-2,1.1248076E-3,-6.3981484E-3,-1.7229583E-2,2.922926E-3,4.608425E-3,5.1323626E-2,-2.4864867E-3,4.4415393E-3,3.786327E-2,-2.0496952E-3],"categories":[],"categories_nodes":[],"categories_segments":[],"categories_sizes":[],